{"learner":{"attributes":{"best_iteration":"99","best_ntree_limit":"100","scikit_learn":"{\"n_estimators\": 100, \"objective\": \"reg:squarederror\", \"max_depth\": null, \"max_leaves\": null, \"max_bin\": null, \"grow_policy\": null, \"learning_rate\": null, \"verbosity\": null, \"booster\": null, \"tree_method\": \"gpu_hist\", \"gamma\": null, \"min_child_weight\": null, \"max_delta_step\": null, \"subsample\": null, \"sampling_method\": null, \"colsample_bytree\": null, \"colsample_bylevel\": null, \"colsample_bynode\": null, \"reg_alpha\": null, \"reg_lambda\": null, \"scale_pos_weight\": null, \"base_score\": null, \"missing\": NaN, \"num_parallel_tree\": null, \"random_state\": null, \"n_jobs\": null, \"monotone_constraints\": null, \"interaction_constraints\": null, \"importance_type\": null, \"gpu_id\": 0, \"validate_parameters\": null, \"predictor\": null, \"enable_categorical\": false, \"feature_types\": null, \"max_cat_to_onehot\": null, \"max_cat_threshold\": null, \"eval_metric\": null, \"early_stopping_rounds\": null, \"callbacks\": null, \"_estimator_type\": \"regressor\"}"},"feature_names":[],"feature_types":[],"gradient_booster":{"model":{"gbtree_model_param":{"num_parallel_tree":"1","num_trees":"100","size_leaf_vector":"0"},"tree_info":[0,0,0,0,0,0,0,0,0,0,0,0,0,0,0,0,0,0,0,0,0,0,0,0,0,0,0,0,0,0,0,0,0,0,0,0,0,0,0,0,0,0,0,0,0,0,0,0,0,0,0,0,0,0,0,0,0,0,0,0,0,0,0,0,0,0,0,0,0,0,0,0,0,0,0,0,0,0,0,0,0,0,0,0,0,0,0,0,0,0,0,0,0,0,0,0,0,0,0,0],"trees":[{"base_weights":[3.1787447E1,2.6231665E1,1.9886356E2,2.0313059E1,1.2914377E2,1.10004E2,3.7016147E2,1.8101343E1,2.6024146E2,2.7012222E1,1.4235464E2,9.3800835E1,3.2735416E2,2.5823303E2,6.2592737E2,1.5027397E1,6.4055336E1,9.2849495E1,3.6587308E2,3.3921342E0,9.397049E0,1.4706795E2,3.2154716E1,8.826007E1,1.3290001E2,3.4626564E1,1.1121563E2,9.909201E1,2.9895654E2,6.6013916E2,5.2359375E1,1.4456424E1,3.7950836E1,5.37799E1,1.9080894E2,5.1015076E1,1.21293755E2,4.6280487E2,3.2021034E1,2.6703126E0,3.5367838E-1,5.3602943E1,1.42377E2,1.2344861E2,5.70316E1,1.427882E2,1.4956876E1,3.1592865E2,1.0650001E1,6.875333E2,1.6615105E2,1.940625E1,4.155469E0,4.2359104E0,5.634927E1,1.5441299E1,1.0665E2,6.2019024E1,7.583438E0,1.7917318E0,1.973413E1,1.5114688E2,4.186875E1,1.1578125E1,2.2751954E0,3.3841824E1,4.453302E1,5.199688E1,2.1621836E1,1.1745933E1,3.5090252E1,5.3525005E1,1.6094532E1,8.179573E1,1.3989375E2,2.106207E2,3.99E1,3.8179688E0,7.0950005E1],"categories":[],"categories_nodes":[],"categories_segments":[],"categories_sizes":[],"default_left":[0,0,0,0,0,0,0,0,0,0,0,0,0,0,0,0,0,0,0,0,0,0,0,0,0,0,0,0,0,0,0,0,0,0,0,0,0,0,0,0,0,0,0,0,0,0,0,0,0,0,0,0,0,0,0,0,0,0,0,0,0,0,0,0,0,0,0,0,0,0,0,0,0,0,0,0,0,0,0],"id":0,"left_children":[1,3,5,7,9,11,13,15,17,19,21,23,25,27,29,31,33,35,37,39,-1,41,-1,43,-1,-1,-1,45,47,49,51,53,-1,55,57,59,-1,61,63,-1,-1,-1,65,67,69,71,-1,73,-1,75,77,-1,-1,-1,-1,-1,-1,-1,-1,-1,-1,-1,-1,-1,-1,-1,-1,-1,-1,-1,-1,-1,-1,-1,-1,-1,-1,-1,-1],"loss_changes":[9.661459E6,6.1370645E6,5.05847E6,5.054009E6,7.35542E5,7.511245E5,3.101898E6,1.3335212E6,1.504353E6,6.411039E3,6.464E4,3.6334575E5,9.5066375E4,4.95319E5,6.32611E5,5.618511E5,7.6078775E5,4.3541953E5,1.700307E6,1.23622154E2,0E0,3.7577E4,0E0,2.1932975E5,0E0,0E0,0E0,3.1606578E4,2.74955E5,3.18803E5,5.2816406E2,5.1178625E5,0E0,3.6415862E5,1.107335E5,2.0889406E4,0E0,4.73294E5,1.7953369E3,0E0,0E0,0E0,5.0525E4,2.3349212E5,1.1436394E5,1.9011453E4,0E0,2.633415E5,0E0,1.48439E5,2.9369922E4,0E0,0E0,0E0,0E0,0E0,0E0,0E0,0E0,0E0,0E0,0E0,0E0,0E0,0E0,0E0,0E0,0E0,0E0,0E0,0E0,0E0,0E0,0E0,0E0,0E0,0E0,0E0,0E0],"parents":[2147483647,0,0,1,1,2,2,3,3,4,4,5,5,6,6,7,7,8,8,9,9,10,10,11,11,12,12,13,13,14,14,15,15,16,16,17,17,18,18,19,19,21,21,23,23,27,27,28,28,29,29,30,30,31,31,33,33,34,34,35,35,37,37,38,38,42,42,43,43,44,44,45,45,47,47,49,49,50,50],"right_children":[2,4,6,8,10,12,14,16,18,20,22,24,26,28,30,32,34,36,38,40,-1,42,-1,44,-1,-1,-1,46,48,50,52,54,-1,56,58,60,-1,62,64,-1,-1,-1,66,68,70,72,-1,74,-1,76,78,-1,-1,-1,-1,-1,-1,-1,-1,-1,-1,-1,-1,-1,-1,-1,-1,-1,-1,-1,-1,-1,-1,-1,-1,-1,-1,-1,-1],"split_conditions":[2.5890498E0,1.9459013E0,3.5740466E0,8.356838E0,-7.4737024E-1,2.6328691E1,-4.0098816E-1,3.5740466E0,3.5740466E0,6.7909975E0,9.956154E0,3.4E1,-4.9885827E-1,-3.6829117E-1,2.7773743E0,9.956154E0,4.5001135E0,1.8615002E1,-2.5397435E-1,-2.904989E-1,9.397049E0,1.2617955E0,3.2154716E1,-4.0098816E-1,1.3290001E2,3.4626564E1,1.1121563E2,-2.904989E-1,1.5713961E1,5.1012253E1,7.3665917E-1,1.9987495E1,3.7950836E1,3.4E1,-2.7223662E-1,-1.5121247E0,1.21293755E2,2.7254095E1,2.3591468E0,2.6703126E0,3.5367838E-1,5.3602943E1,1.9740247E0,2.3591468E0,9.7008866E-1,-3.9753166E-1,1.4956876E1,4.5001135E0,1.0650001E1,1.0203921E2,7.3665917E-1,1.940625E1,4.155469E0,4.2359104E0,5.634927E1,1.5441299E1,1.0665E2,6.2019024E1,7.583438E0,1.7917318E0,1.973413E1,1.5114688E2,4.186875E1,1.1578125E1,2.2751954E0,3.3841824E1,4.453302E1,5.199688E1,2.1621836E1,1.1745933E1,3.5090252E1,5.3525005E1,1.6094532E1,8.179573E1,1.3989375E2,2.106207E2,3.99E1,3.8179688E0,7.0950005E1],"split_indices":[0,25,2715,2696,2720,2433,22,2715,2715,258,175,143,2719,2720,35,175,180,19,27,27,0,27,0,22,0,0,0,27,5,2394,1,2381,0,277,27,2719,0,1797,3,0,0,0,27,3,22,2719,0,180,0,1696,1,0,0,0,0,0,0,0,0,0,0,0,0,0,0,0,0,0,0,0,0,0,0,0,0,0,0,0,0],"split_type":[0,0,0,0,0,0,0,0,0,0,0,0,0,0,0,0,0,0,0,0,0,0,0,0,0,0,0,0,0,0,0,0,0,0,0,0,0,0,0,0,0,0,0,0,0,0,0,0,0,0,0,0,0,0,0,0,0,0,0,0,0,0,0,0,0,0,0,0,0,0,0,0,0,0,0,0,0,0,0],"sum_hessian":[1.0413E4,1.0079E4,3.34E2,9.532E3,5.47E2,2.21E2,1.13E2,9.446E3,8.6E1,6.3E1,4.84E2,2.07E2,1.4E1,8E1,3.3E1,8.855E3,5.91E2,3.4E1,5.2E1,1E1,5.3E1,4.24E2,6E1,2.05E2,2E0,3E0,1.1E1,1.7E1,6.3E1,3.1E1,2E0,8.811E3,4.4E1,5.48E2,4.3E1,3.1E1,3E0,4E1,1.2E1,2E0,8E0,5E1,3.74E2,9.5E1,1.1E2,8E0,9E0,5.9E1,4E0,2.9E1,2E0,1E0,1E0,8.795E3,1.6E1,5.45E2,3E0,3.9E1,4E0,8E0,2.3E1,3.5E1,5E0,9E0,3E0,6.7E1,3.07E2,4.7E1,4.8E1,8.6E1,2.4E1,5E0,3E0,4.8E1,1.1E1,2.8E1,1E0,1E0,1E0],"tree_param":{"num_deleted":"0","num_feature":"2721","num_nodes":"79","size_leaf_vector":"0"}},{"base_weights":[2.2431877E1,1.8443165E1,1.4238348E2,1.4286268E1,9.072281E1,7.880098E1,2.6495306E2,1.2701662E1,1.8618843E2,1.9102634E1,9.9986664E1,5.946529E1,1.8040977E2,1.8467566E2,4.4840945E2,1.0530305E1,4.516254E1,1.4705391E2,5.0901495E2,2.6494021E0,6.63014E0,3.633459E1,9.439235E1,5.4388573E1,1.0632E2,2.2841875E2,9.208072E1,1.5852695E2,4.0346674E2,4.7226266E2,4.450547E1,1.0301523E1,5.3485126E1,8.811535E1,2.9186533E1,3.5443684E1,2.3502922E2,1.7292737E2,5.461625E1,2.13625E0,2.5936416E-1,9.7607895E1,2.2666437E1,8.116567E1,3.2022896E1,1.3800624E1,2.443603E2,3.341258E0,3.1392937E1,1.7280925E2,1.9096848E1,4.4253995E2,1.9493141E1,3.763257E2,1.9370741E2,1.6495314E1,3.5321486E0,2.9687827E0,2.681859E1,2.4836088E1,1.01811745E2,8.128618E0,1.3988382E2,5.984212E0,3.2880207E1,9.373724E0,7.991499E1,3.710973E1,2.8514072E1,2.2747278E1,7.867547E1,8.0442295E0,3.862575E1,1.0056618E2,5.7517654E1,5.8726715E1,2.4063356E1,7.554235E0,3.1231E0,1.4839128E2,1.9493141E1,1.19628746E2,2.8147932E1],"categories":[],"categories_nodes":[],"categories_segments":[],"categories_sizes":[],"default_left":[0,0,0,0,0,0,0,0,0,0,0,0,0,0,0,0,0,0,0,0,0,0,0,0,0,0,0,0,0,0,0,0,0,0,0,0,0,0,0,0,0,0,0,0,0,0,0,0,0,0,0,0,0,0,0,0,0,0,0,0,0,0,0,0,0,0,0,0,0,0,0,0,0,0,0,0,0,0,0,0,0,0,0],"id":1,"left_children":[1,3,5,7,9,11,13,15,17,19,21,23,25,27,29,31,33,35,37,39,-1,-1,41,43,-1,45,47,49,51,53,55,57,-1,59,61,63,65,-1,-1,-1,-1,67,-1,69,71,-1,73,-1,-1,75,77,79,-1,81,-1,-1,-1,-1,-1,-1,-1,-1,-1,-1,-1,-1,-1,-1,-1,-1,-1,-1,-1,-1,-1,-1,-1,-1,-1,-1,-1,-1,-1],"loss_changes":[4.979977E6,3.02733E6,2.589871E6,2.594398E6,3.616765E5,4.2542988E5,1.5961135E6,6.653885E5,1.02427575E6,3.0981855E3,4.58955E4,2.6221712E5,1.273875E5,3.99449E5,3.06551E5,3.380467E5,4.0366712E5,7.673665E5,9.342225E4,8.1633125E1,0E0,0E0,1.612725E4,1.08794E5,0E0,5.273525E4,1.30703125E4,1.4406225E5,7.7052125E4,2.89433E5,3.8159863E2,2.8285362E5,0E0,1.8611212E5,3.8313747E5,3.9183516E4,2.7281225E5,0E0,0E0,0E0,0E0,1.015975E4,0E0,6.1364312E4,4.844365E4,0E0,3.1378E4,0E0,0E0,1.2665975E5,1.6064526E2,1.05550625E5,0E0,1.0836825E5,0E0,0E0,0E0,0E0,0E0,0E0,0E0,0E0,0E0,0E0,0E0,0E0,0E0,0E0,0E0,0E0,0E0,0E0,0E0,0E0,0E0,0E0,0E0,0E0,0E0,0E0,0E0,0E0,0E0],"parents":[2147483647,0,0,1,1,2,2,3,3,4,4,5,5,6,6,7,7,8,8,9,9,10,10,11,11,12,12,13,13,14,14,15,15,16,16,17,17,18,18,19,19,22,22,23,23,25,25,26,26,27,27,28,28,29,29,30,30,31,31,33,33,34,34,35,35,36,36,41,41,43,43,44,44,46,46,49,49,50,50,51,51,53,53],"right_children":[2,4,6,8,10,12,14,16,18,20,22,24,26,28,30,32,34,36,38,40,-1,-1,42,44,-1,46,48,50,52,54,56,58,-1,60,62,64,66,-1,-1,-1,-1,68,-1,70,72,-1,74,-1,-1,76,78,80,-1,82,-1,-1,-1,-1,-1,-1,-1,-1,-1,-1,-1,-1,-1,-1,-1,-1,-1,-1,-1,-1,-1,-1,-1,-1,-1,-1,-1,-1,-1],"split_conditions":[2.5890498E0,1.9459013E0,3.5740466E0,8.356838E0,-7.4737024E-1,8.356838E0,-4.0098816E-1,3.5740466E0,1.8615002E1,6.7909975E0,-4.9465084E-1,1.8603764E1,2.3591468E0,1.454339E1,2.7773743E0,2.8284271E1,7.3665917E-1,-2.4193151E-1,2.250477E0,-2.904989E-1,6.63014E0,3.633459E1,9.956154E0,8.146682E-1,1.0632E2,-1.8161047E0,-2.0187578E0,3.0751202E1,1.0203921E2,1.0216652E0,7.3665917E-1,9.956154E0,5.3485126E1,2.7773743E0,1.0203921E2,6.136595E0,3.5740466E0,1.7292737E2,5.461625E1,2.13625E0,2.5936416E-1,1.2617955E0,2.2666437E1,5.1012253E1,2.7592723E0,1.3800624E1,-1.0000895E0,3.341258E0,3.1392937E1,7.689459E-1,-3.9753166E-1,1.0203921E2,1.9493141E1,8.953055E-1,1.9370741E2,1.6495314E1,3.5321486E0,2.9687827E0,2.681859E1,2.4836088E1,1.01811745E2,8.128618E0,1.3988382E2,5.984212E0,3.2880207E1,9.373724E0,7.991499E1,3.710973E1,2.8514072E1,2.2747278E1,7.867547E1,8.0442295E0,3.862575E1,1.0056618E2,5.7517654E1,5.8726715E1,2.4063356E1,7.554235E0,3.1231E0,1.4839128E2,1.9493141E1,1.19628746E2,2.8147932E1],"split_indices":[0,25,2715,2696,2720,2696,22,2715,19,258,2720,359,3,436,35,492,1,2720,2716,27,0,0,175,2718,0,2719,2719,419,1333,2720,1,175,0,35,325,19,2715,0,0,0,0,27,0,336,23,0,2720,0,0,2720,2719,2520,0,2720,0,0,0,0,0,0,0,0,0,0,0,0,0,0,0,0,0,0,0,0,0,0,0,0,0,0,0,0,0],"split_type":[0,0,0,0,0,0,0,0,0,0,0,0,0,0,0,0,0,0,0,0,0,0,0,0,0,0,0,0,0,0,0,0,0,0,0,0,0,0,0,0,0,0,0,0,0,0,0,0,0,0,0,0,0,0,0,0,0,0,0,0,0,0,0,0,0,0,0,0,0,0,0,0,0,0,0,0,0,0,0,0,0,0,0],"sum_hessian":[1.0413E4,1.0079E4,3.34E2,9.532E3,5.47E2,2.21E2,1.13E2,9.446E3,8.6E1,6.3E1,4.84E2,1.87E2,3.4E1,8E1,3.3E1,8.855E3,5.91E2,7.8E1,8E0,1E1,5.3E1,9.7E1,3.87E2,1.85E2,2E0,2.1E1,1.3E1,7.3E1,7E0,3.1E1,2E0,8.844E3,1.1E1,1.59E2,4.32E2,3.5E1,4.3E1,6E0,2E0,2E0,8E0,3.27E2,6E1,8.3E1,1.02E2,2E0,1.9E1,2E0,1.1E1,6.6E1,7E0,6E0,1E0,2.2E1,9E0,1E0,1E0,8.8E3,4.4E1,1.57E2,2E0,4.31E2,1E0,3E1,5E0,6E0,3.7E1,2.5E1,3.02E2,8.2E1,1E0,9.8E1,4E0,5E0,1.4E1,5.2E1,1.4E1,3E0,4E0,5E0,1E0,2E1,2E0],"tree_param":{"num_deleted":"0","num_feature":"2721","num_nodes":"83","size_leaf_vector":"0"}},{"base_weights":[1.5889626E1,1.299427E1,1.02962135E2,1.0075247E1,6.3749855E1,5.7237404E1,1.9110185E2,9.179844E0,1.868193E2,1.3512871E1,7.024762E1,3.610333E1,1.1119464E2,1.3274017E2,3.2451932E2,9.0336485E0,1.4048763E2,1.3832474E2,3.8159308E2,1.5341388E1,6.340013E-1,2.554544E1,6.63022E1,2.9449398E1,1.0386606E2,4.2913902E1,1.4268753E2,1.1223193E2,3.058489E2,1.6471556E2,3.673545E2,8.63788E0,1.526695E2,9.710032E1,8.7325455E1,1.2846033E2,4.3693E1,5.0780077E0,3.567955E0,8.1297755E-2,2.0970148E-1,2.6404997E1,6.456424E1,2.3766966E1,9.8060875E1,2.7427013E1,1.3169897E2,5.0789093E1,-6.3800817E0,1.2051584E2,2.5563165E2,1.03086075E2,1.1698193E2,3.3376144E2,1.656917E1,4.437915E1,6.524618E1,3.859684E2,-1.4699039E1,5.3121085E0,1.0721428E0,4.7793114E1,1.4595764E1,2.3551552E1,1.0382174E2,1.3429414E1,2.0188847E1,-1.5488127E0,9.764748E0,3.317929E1,-4.095999E0,1.1040501E1,2.6730065E0,2.9340769E1,6.5515015E1,1.634275E1,-2.335836E0,4.472478E1,1.1832438E1,9.157704E1,1.1258767E0,9.065044E0,3.7400253E1,1.1129345E2,1.656917E1,3.0023263E0,1.5750111E1,1.2027474E2,4.0847054E0],"categories":[],"categories_nodes":[],"categories_segments":[],"categories_sizes":[],"default_left":[0,0,0,0,0,0,0,0,0,0,0,0,0,0,0,0,0,0,0,0,0,0,0,0,0,0,0,0,0,0,0,0,0,0,0,0,0,0,0,0,0,0,0,0,0,0,0,0,0,0,0,0,0,0,0,0,0,0,0,0,0,0,0,0,0,0,0,0,0,0,0,0,0,0,0,0,0,0,0,0,0,0,0,0,0,0,0,0,0],"id":2,"left_children":[1,3,5,7,9,11,13,15,17,19,21,23,25,27,29,31,-1,33,35,37,39,-1,41,43,45,47,49,51,53,55,57,59,61,63,-1,-1,-1,-1,-1,-1,-1,-1,65,67,69,71,73,75,-1,77,79,81,-1,83,-1,85,-1,87,-1,-1,-1,-1,-1,-1,-1,-1,-1,-1,-1,-1,-1,-1,-1,-1,-1,-1,-1,-1,-1,-1,-1,-1,-1,-1,-1,-1,-1,-1,-1],"loss_changes":[2.6240922E6,1.4927778E6,1.3391668E6,1.50695E6,1.779335E5,2.4914012E5,8.445805E5,6.324706E5,4.0059888E5,1.4974248E3,2.28735E4,6.953425E4,1.2719894E5,2.532365E5,1.7222875E5,5.378127E5,0E0,2.2363338E5,3.660975E4,1.0480859E2,2.2946835E-2,0E0,8.96E3,5.537164E4,2.6173188E4,1.1694293E4,7.436706E4,1.4775344E5,3.7529312E4,4.7501297E4,2.2040925E5,4.3435838E5,1.0209E4,1.2561072E5,0E0,0E0,0E0,0E0,0E0,0E0,0E0,0E0,1.66225E4,3.522914E4,1.6915906E4,5.4004834E2,8.024453E3,4.5272344E3,0E0,7.981319E4,7.38515E4,1.110345E5,0E0,5.2072688E4,0E0,5.9113965E2,0E0,1.3368375E5,0E0,0E0,0E0,0E0,0E0,0E0,0E0,0E0,0E0,0E0,0E0,0E0,0E0,0E0,0E0,0E0,0E0,0E0,0E0,0E0,0E0,0E0,0E0,0E0,0E0,0E0,0E0,0E0,0E0,0E0,0E0],"parents":[2147483647,0,0,1,1,2,2,3,3,4,4,5,5,6,6,7,7,8,8,9,9,10,10,11,11,12,12,13,13,14,14,15,15,17,17,18,18,19,19,20,20,22,22,23,23,24,24,25,25,26,26,27,27,28,28,29,29,30,30,31,31,32,32,33,33,42,42,43,43,44,44,45,45,46,46,47,47,49,49,50,50,51,51,53,53,55,55,57,57],"right_children":[2,4,6,8,10,12,14,16,18,20,22,24,26,28,30,32,-1,34,36,38,40,-1,42,44,46,48,50,52,54,56,58,60,62,64,-1,-1,-1,-1,-1,-1,-1,-1,66,68,70,72,74,76,-1,78,80,82,-1,84,-1,86,-1,88,-1,-1,-1,-1,-1,-1,-1,-1,-1,-1,-1,-1,-1,-1,-1,-1,-1,-1,-1,-1,-1,-1,-1,-1,-1,-1,-1,-1,-1,-1,-1],"split_conditions":[2.5890498E0,1.9459013E0,3.5740466E0,6.136595E0,-7.4737024E-1,2.250477E0,-4.0098816E-1,7.2149155E1,1.8615002E1,6.337042E0,-4.9465084E-1,8.356838E0,-6.001849E-1,1.454339E1,3.8986686E-1,1.9987495E1,1.4048763E2,2.0384308E1,2.250477E0,5.5252457E0,7.86976E-1,2.554544E1,1.2617955E0,2.7592723E0,-1.8161047E0,1.7968594E0,-2.7223662E-1,1.0203921E2,1.0203921E2,2.2222857E-1,5.1012253E1,8.146682E-1,4.144005E0,1.5713961E1,8.7325455E1,1.2846033E2,4.3693E1,5.0780077E0,3.567955E0,8.1297755E-2,2.0970148E-1,2.6404997E1,1.8827132E0,-4.9885827E-1,5.8906704E1,2.3591468E0,-2.7223662E-1,7.86976E-1,-6.3800817E0,2.635072E-1,1.0203921E2,-3.6829117E-1,1.1698193E2,1.0203921E2,1.656917E1,2.2245384E1,6.524618E1,1.0203921E2,-1.4699039E1,5.3121085E0,1.0721428E0,4.7793114E1,1.4595764E1,2.3551552E1,1.0382174E2,1.3429414E1,2.0188847E1,-1.5488127E0,9.764748E0,3.317929E1,-4.095999E0,1.1040501E1,2.6730065E0,2.9340769E1,6.5515015E1,1.634275E1,-2.335836E0,4.472478E1,1.1832438E1,9.157704E1,1.1258767E0,9.065044E0,3.7400253E1,1.1129345E2,1.656917E1,3.0023263E0,1.5750111E1,1.2027474E2,4.0847054E0],"split_indices":[0,25,2715,19,2720,2716,22,362,19,326,2720,2696,2719,436,2720,2381,0,476,2716,25,27,0,27,23,2719,15,27,2268,1333,22,2394,2718,483,5,0,0,0,0,0,0,0,0,27,2719,1305,3,27,27,0,2720,292,2720,0,2520,0,527,0,1229,0,0,0,0,0,0,0,0,0,0,0,0,0,0,0,0,0,0,0,0,0,0,0,0,0,0,0,0,0,0,0],"split_type":[0,0,0,0,0,0,0,0,0,0,0,0,0,0,0,0,0,0,0,0,0,0,0,0,0,0,0,0,0,0,0,0,0,0,0,0,0,0,0,0,0,0,0,0,0,0,0,0,0,0,0,0,0,0,0,0,0,0,0,0,0,0,0,0,0,0,0,0,0,0,0,0,0,0,0,0,0,0,0,0,0,0,0,0,0,0,0,0,0],"sum_hessian":[1.0413E4,1.0079E4,3.34E2,9.532E3,5.47E2,2.21E2,1.13E2,9.485E3,4.7E1,6.3E1,4.84E2,1.6E2,6.1E1,8E1,3.3E1,9.483E3,2E0,3.9E1,8E0,5.5E1,8E0,9.7E1,3.87E2,1.47E2,1.3E1,2E1,4.1E1,7.3E1,7E0,8E0,2.5E1,9.458E3,2.5E1,3.2E1,7E0,6E0,2E0,3.5E1,2E1,2E0,6E0,2.5E1,3.62E2,1.37E2,1E1,4E0,9E0,1.8E1,2E0,3.6E1,5E0,7.2E1,1E0,6E0,1E0,3E0,5E0,2.4E1,1E0,3.388E3,6.07E3,2.3E1,2E0,3.1E1,1E0,4.6E1,3.16E2,3.2E1,1.05E2,9E0,1E0,2E0,2E0,8E0,1E0,1.7E1,1E0,2.6E1,1E1,4E0,1E0,1.7E1,5.5E1,5E0,1E0,1E0,2E0,2.3E1,1E0],"tree_param":{"num_deleted":"0","num_feature":"2721","num_nodes":"89","size_leaf_vector":"0"}},{"base_weights":[1.1266286E1,9.164503E0,7.4474365E1,8.255586E0,1.13469734E2,4.1429947E1,1.3817075E2,6.135003E0,4.4797356E1,7.15809E1,2.5021826E2,3.3938244E1,1.4255289E2,9.671909E1,2.3285938E2,5.680606E0,8.506968E1,9.598649E0,4.9349766E1,4.8068428E1,2.696084E2,2.1314133E1,3.0611215E2,3.1027906E1,6.674059E1,6.819057E0,1.7061438E2,6.973262E1,1.9421333E2,1.7436484E2,3.2556897E2,5.5973864E0,1.1810442E2,9.1308304E1,-1.542692E1,1.2944816E0,1.1112486E1,5.1522614E1,1.0020617E1,3.7321583E1,1.0554391E2,9.226289E1,3.4954403E1,5.515791E0,1.2676126E1,3.3606125E2,-2.1468597E1,2.9222662E1,6.0165432E1,9.531346E1,1.09423805E2,3.851003E1,1.432973E2,2.5136734E1,2.625672E2,1.8995032E2,5.2846222E1,1.0728079E2,-4.020195E0,1.5927181E0,3.2780468E1,3.0217041E1,7.014388E-1,9.954091E-1,1.4284027E-1,3.5969217E0,2.6596367E0,1.3290713E1,1.711894E1,5.492677E0,3.6623493E1,1.8475723E-1,3.0323389E0,1.0978998E2,-1.2392015E1,7.5474906E0,2.4862549E1,2.4099546E1,5.568776E1,6.793779E0,7.909046E1,5.625326E1,-5.4008512E0,3.0964985E1,-3.3367693E0,8.337039E1,1.4083795E1,5.971568E1,2.5519774E0,-1.2494184E1,2.9467945E1],"categories":[],"categories_nodes":[],"categories_segments":[],"categories_sizes":[],"default_left":[0,0,0,0,0,0,0,0,0,0,0,0,0,0,0,0,0,0,0,0,0,0,0,0,0,0,0,0,0,0,0,0,0,0,0,0,0,0,0,0,0,0,0,0,0,0,0,0,0,0,0,0,0,0,0,0,0,0,0,0,0,0,0,0,0,0,0,0,0,0,0,0,0,0,0,0,0,0,0,0,0,0,0,0,0,0,0,0,0,0,0],"id":3,"left_children":[1,3,5,7,9,11,13,15,17,19,21,23,25,27,29,31,33,35,37,39,41,43,45,47,-1,-1,49,51,53,55,57,59,-1,61,-1,63,65,67,-1,69,-1,-1,-1,71,-1,73,-1,75,-1,-1,77,79,81,83,85,87,89,-1,-1,-1,-1,-1,-1,-1,-1,-1,-1,-1,-1,-1,-1,-1,-1,-1,-1,-1,-1,-1,-1,-1,-1,-1,-1,-1,-1,-1,-1,-1,-1,-1,-1],"loss_changes":[1.382814E6,9.5469606E5,6.9938725E5,7.741586E5,4.8044562E5,1.6334544E5,4.2492825E5,3.3835884E5,8.7337375E4,3.0365628E5,2.4936238E5,1.0722414E5,4.6558E4,1.9957012E5,1.27614375E5,3.01122E5,5.0677844E4,7.9016895E2,1.508525E4,1.8925617E5,4.8195E3,1.4209934E3,2.0502512E5,5.7181797E4,0E0,0E0,7.324634E4,1.4377881E5,1.8986956E5,3.3522125E4,1.3509338E5,2.801862E5,0E0,4.332328E4,0E0,1.6635792E1,1.508789E-1,1.447375E4,0E0,9.606337E4,0E0,0E0,0E0,8.3777115E1,0E0,1.8439662E5,0E0,4.261797E4,0E0,0E0,7.2570312E3,1.6188569E5,1.3887716E5,1.8134762E4,2.663E4,3.1336625E4,2.1243426E4,0E0,0E0,0E0,0E0,0E0,0E0,0E0,0E0,0E0,0E0,0E0,0E0,0E0,0E0,0E0,0E0,0E0,0E0,0E0,0E0,0E0,0E0,0E0,0E0,0E0,0E0,0E0,0E0,0E0,0E0,0E0,0E0,0E0,0E0],"parents":[2147483647,0,0,1,1,2,2,3,3,4,4,5,5,6,6,7,7,8,8,9,9,10,10,11,11,12,12,13,13,14,14,15,15,16,16,17,17,18,18,19,19,20,20,21,21,22,22,23,23,26,26,27,27,28,28,29,29,30,30,31,31,33,33,35,35,36,36,37,37,39,39,43,43,45,45,47,47,50,50,51,51,52,52,53,53,54,54,55,55,56,56],"right_children":[2,4,6,8,10,12,14,16,18,20,22,24,26,28,30,32,34,36,38,40,42,44,46,48,-1,-1,50,52,54,56,58,60,-1,62,-1,64,66,68,-1,70,-1,-1,-1,72,-1,74,-1,76,-1,-1,78,80,82,84,86,88,90,-1,-1,-1,-1,-1,-1,-1,-1,-1,-1,-1,-1,-1,-1,-1,-1,-1,-1,-1,-1,-1,-1,-1,-1,-1,-1,-1,-1,-1,-1,-1,-1,-1,-1],"split_conditions":[2.5890498E0,8.356838E0,3.5740466E0,1.9459013E0,3.8986686E-1,2.6328691E1,-4.0098816E-1,1.2334194E1,-7.4737024E-1,1.8615002E1,3.5740466E0,3.4E1,-4.9885827E-1,-1.3398196E-1,6.1573476E-1,1.0203921E2,5.1012253E1,6.7909975E0,9.956154E0,1.0203921E2,2.250477E0,6.595453E0,7.2149155E1,5.1012253E1,6.674059E1,6.819057E0,-1.0000895E0,4.5001135E0,1.0787837E-2,3.8556084E1,2.7773743E0,1.9987495E1,1.1810442E2,-2.7223662E-1,-1.542692E1,-2.904989E-1,5.5252457E0,3.377639E0,1.0020617E1,1.1224429E1,1.0554391E2,9.226289E1,3.4954403E1,3.8556084E1,1.2676126E1,5.8906704E1,-2.1468597E1,2.7592723E0,6.0165432E1,9.531346E1,-2.7223662E-1,6.136595E0,1.5713961E1,-9.0416485E-1,1.0203921E2,2.7773743E0,7.3665917E-1,1.0728079E2,-4.020195E0,1.5927181E0,3.2780468E1,3.0217041E1,7.014388E-1,9.954091E-1,1.4284027E-1,3.5969217E0,2.6596367E0,1.3290713E1,1.711894E1,5.492677E0,3.6623493E1,1.8475723E-1,3.0323389E0,1.0978998E2,-1.2392015E1,7.5474906E0,2.4862549E1,2.4099546E1,5.568776E1,6.793779E0,7.909046E1,5.625326E1,-5.4008512E0,3.0964985E1,-3.3367693E0,8.337039E1,1.4083795E1,5.971568E1,2.5519774E0,-1.2494184E1,2.9467945E1],"split_indices":[0,2696,2715,25,2720,2433,22,2686,2720,19,2715,143,2719,23,2719,325,1918,258,175,1446,2716,2,2269,336,0,0,2720,180,2720,218,35,2381,0,27,0,27,25,25,0,420,0,0,0,1794,0,2618,0,23,0,0,27,19,5,2719,1333,35,1,0,0,0,0,0,0,0,0,0,0,0,0,0,0,0,0,0,0,0,0,0,0,0,0,0,0,0,0,0,0,0,0,0,0],"split_type":[0,0,0,0,0,0,0,0,0,0,0,0,0,0,0,0,0,0,0,0,0,0,0,0,0,0,0,0,0,0,0,0,0,0,0,0,0,0,0,0,0,0,0,0,0,0,0,0,0,0,0,0,0,0,0,0,0,0,0,0,0,0,0,0,0,0,0,0,0,0,0,0,0,0,0,0,0,0,0,0,0,0,0,0,0,0,0,0,0,0,0],"sum_hessian":[1.0413E4,1.0079E4,3.34E2,9.993E3,8.6E1,2.21E2,1.13E2,9.446E3,5.47E2,6.7E1,1.9E1,2.07E2,1.4E1,8E1,3.3E1,9.393E3,5.3E1,6.3E1,4.84E2,6.1E1,6E0,4E0,1.5E1,2.05E2,2E0,3E0,1.1E1,6.4E1,1.6E1,2.2E1,1.1E1,9.392E3,1E0,5.1E1,2E0,1E1,5.3E1,4.24E2,6E1,6E1,1E0,4E0,2E0,3E0,1E0,1.4E1,1E0,2.04E2,1E0,2E0,9E0,4.6E1,1.8E1,5E0,1.1E1,1.9E1,3E0,1E1,1E0,9.367E3,2.5E1,4.6E1,5E0,2E0,8E0,3.5E1,1.8E1,1.88E2,2.36E2,5E1,1E1,2E0,1E0,1.3E1,1E0,1.91E2,1.3E1,8E0,1E0,4.4E1,2E0,1.4E1,4E0,1E0,4E0,1E1,1E0,1.8E1,1E0,1E0,2E0],"tree_param":{"num_deleted":"0","num_feature":"2721","num_nodes":"91","size_leaf_vector":"0"}},{"base_weights":[8.017767E0,5.531541E0,3.972708E1,1.7400633E1,1.9575979E0,7.6149254E1,1.6434923E1,3.2610943E1,5.1027346E0,-9.9908745E-1,1.21533575E1,7.099787E1,9.373235E1,1.3475996E1,7.186818E1,3.1295103E1,8.638234E1,2.0942774E0,2.7923216E1,-1.0807364E0,7.033357E1,1.1492904E1,3.3197075E1,6.3486E1,2.1455437E2,1.2041024E1,1.00388756E2,2.88093E1,1.4521712E2,1.5413924E0,3.666131E1,2.4529621E1,4.216998E1,-1.2739438E0,8.435551E1,1.0220498E1,4.3564964E1,5.8576305E1,2.2125241E2,2.7793405E2,-4.0134964E0,1.0910576E1,7.912879E1,8.244644E0,3.3574505E1,1.3097621E1,5.2267635E1,2.482004E-1,2.357307E1,6.7395453E0,4.703335E1,-4.4978115E-1,1.5744599E1,1.4820834E1,3.9119797E1,2.9243429E0,3.0866964E1,2.6908312E1,3.256889E0,1.6691734E1,9.0432106E1,-6.451404E0,9.172667E1,9.5677345E1,-1.9795532E1,1.9719492E0,2.3092878E1],"categories":[],"categories_nodes":[],"categories_segments":[],"categories_sizes":[],"default_left":[0,0,0,0,0,0,0,0,0,0,0,0,0,0,0,0,0,0,0,0,0,0,0,0,0,0,0,0,0,0,0,0,0,0,0,0,0,0,0,0,0,0,0,0,0,0,0,0,0,0,0,0,0,0,0,0,0,0,0,0,0,0,0,0,0,0,0],"id":4,"left_children":[1,3,5,7,9,11,13,15,17,19,21,23,-1,25,-1,27,-1,29,31,33,-1,35,-1,37,39,41,-1,43,45,47,-1,49,-1,51,53,55,57,59,61,63,-1,65,-1,-1,-1,-1,-1,-1,-1,-1,-1,-1,-1,-1,-1,-1,-1,-1,-1,-1,-1,-1,-1,-1,-1,-1,-1],"loss_changes":[8.207839E5,4.0965312E5,6.409501E5,4.1790112E5,2.2381348E5,3.3690012E5,3.024502E5,3.2662688E5,8.486706E4,1.1090543E5,1.0730839E5,2.9910862E5,0E0,2.0703816E5,0E0,2.7758794E5,0E0,7.246096E4,5.159825E4,9.510479E4,0E0,6.725636E4,0E0,2.0159988E5,2.059665E5,1.2716528E5,0E0,1.04461125E5,5.4260344E4,5.9893496E4,0E0,3.4974164E4,0E0,6.964162E4,1.4479547E4,6.895172E4,9.408263E4,1.7582975E5,1.7068512E5,1.7611556E5,0E0,1.3016269E5,0E0,0E0,0E0,0E0,0E0,0E0,0E0,0E0,0E0,0E0,0E0,0E0,0E0,0E0,0E0,0E0,0E0,0E0,0E0,0E0,0E0,0E0,0E0,0E0,0E0],"parents":[2147483647,0,0,1,1,2,2,3,3,4,4,5,5,6,6,7,7,8,8,9,9,10,10,11,11,13,13,15,15,17,17,18,18,19,19,21,21,23,23,24,24,25,25,27,27,28,28,29,29,31,31,33,33,34,34,35,35,36,36,37,37,38,38,39,39,41,41],"right_children":[2,4,6,8,10,12,14,16,18,20,22,24,-1,26,-1,28,-1,30,32,34,-1,36,-1,38,40,42,-1,44,46,48,-1,50,-1,52,54,56,58,60,62,64,-1,66,-1,-1,-1,-1,-1,-1,-1,-1,-1,-1,-1,-1,-1,-1,-1,-1,-1,-1,-1,-1,-1,-1,-1,-1,-1],"split_conditions":[3.5740466E0,5.5645895E-1,7.3665917E-1,8.146682E-1,5.3383696E-1,4.5624554E1,3.4E1,1.8603764E1,4.2842755E0,1.0203921E2,1.9987495E1,1.2743845E0,9.373235E1,1.0203921E2,7.186818E1,-2.7634484E-1,8.638234E1,2.1732882E1,1.8603764E1,1.4892273E1,7.033357E1,2.7150955E0,3.3197075E1,3.8556084E1,5.8906704E1,1.0203921E2,1.00388756E2,2.6328691E1,-2.1335154E0,1.892271E1,3.666131E1,3.3181894E0,4.216998E1,6.459946E0,3.8556084E1,1.925858E1,3.587599E0,7.2149155E1,8.0685973E-1,-2.904989E-1,-4.0134964E0,2.5890498E0,7.912879E1,8.244644E0,3.3574505E1,1.3097621E1,5.2267635E1,2.482004E-1,2.357307E1,6.7395453E0,4.703335E1,-4.4978115E-1,1.5744599E1,1.4820834E1,3.9119797E1,2.9243429E0,3.0866964E1,2.6908312E1,3.256889E0,1.6691734E1,9.0432106E1,-6.451404E0,9.172667E1,9.5677345E1,-1.9795532E1,1.9719492E0,2.3092878E1],"split_indices":[2715,2692,1,2718,22,2022,277,359,6,1459,2381,2720,0,325,0,22,0,157,359,21,0,22,0,338,323,2306,0,2433,0,321,0,514,0,23,124,76,22,362,9,27,0,0,0,0,0,0,0,0,0,0,0,0,0,0,0,0,0,0,0,0,0,0,0,0,0,0,0],"split_type":[0,0,0,0,0,0,0,0,0,0,0,0,0,0,0,0,0,0,0,0,0,0,0,0,0,0,0,0,0,0,0,0,0,0,0,0,0,0,0,0,0,0,0,0,0,0,0,0,0,0,0,0,0,0,0,0,0,0,0,0,0,0,0,0,0,0,0],"sum_hessian":[1.0413E4,9.657E3,7.56E2,2.234E3,7.423E3,2.94E2,4.62E2,9.98E2,1.236E3,5.755E3,1.668E3,2.89E2,5E0,4.57E2,5E0,9.94E2,4E0,1.093E3,1.43E2,5.754E3,1E0,1.658E3,1E1,2.76E2,1.3E1,4.56E2,1E0,9.74E2,2E1,1.089E3,4E0,1.4E2,3E0,5.742E3,1.2E1,1.596E3,6.2E1,2.69E2,7E0,1E1,3E0,4.55E2,1E0,9.6E2,1.4E1,5E0,1.5E1,1.08E3,9E0,1.39E2,1E0,5.719E3,2.3E1,8E0,4E0,1.589E3,7E0,2.5E1,3.7E1,2.67E2,2E0,2E0,5E0,9E0,1E0,4.28E2,2.7E1],"tree_param":{"num_deleted":"0","num_feature":"2721","num_nodes":"67","size_leaf_vector":"0"}},{"base_weights":[5.7296987E0,4.489742E0,4.302234E1,4.3472695E0,2.4297661E2,2.5685146E1,7.6406845E1,1.38118E1,1.459908E0,8.548621E0,8.405213E1,4.2747974E1,8.237198E0,5.2107372E1,1.3204951E2,2.4717485E1,3.3833728E0,1.3514646E0,6.3100883E1,1.4279291E1,6.3113342E1,-8.850522E-1,3.6650314E1,4.5188816E1,9.0838776E1,1.4180588E2,-1.6034838E1,2.2020159E1,9.9085236E1,1.9256599E0,3.77342E1,1.2460394E0,6.1305744E1,5.384557E0,6.5607796E1,8.76189E1,3.1602898E1,-1.8226236E1,1.1033114E1,4.579098E1,-8.206884E0,3.829307E1,8.849289E1,1.4809834E2,-7.9891114E0,-5.920926E0,-1.2947514E0,7.635038E0,-6.2429395E0,3.7493767E1,-3.2150555E1,4.6591824E-1,3.2681732E1,6.4200106E0,1.6580542E1,1.9704829E-1,9.410114E0,-7.554218E-1,1.1785648E1,2.3165434E1,-6.081093E-1,4.921208E1,1.9054743E1,6.288503E0,3.6116005E1,5.850726E0,-6.331142E0,2.0476577E0,4.5407963E0,1.929723E1,-2.5221477E0,4.6438804E0,3.6175377E1,4.8096252E1,7.6549277E0],"categories":[],"categories_nodes":[],"categories_segments":[],"categories_sizes":[],"default_left":[0,0,0,0,0,0,0,0,0,0,0,0,0,0,0,0,0,0,0,0,0,0,0,0,0,0,0,0,0,0,0,0,0,0,0,0,0,0,0,0,0,0,0,0,0,0,0,0,0,0,0,0,0,0,0,0,0,0,0,0,0,0,0,0,0,0,0,0,0,0,0,0,0,0,0],"id":5,"left_children":[1,3,5,7,9,11,13,15,17,-1,-1,19,21,23,25,27,29,31,-1,33,35,37,39,41,-1,43,45,47,49,51,53,55,-1,57,59,61,63,65,67,69,-1,71,-1,73,-1,-1,-1,-1,-1,-1,-1,-1,-1,-1,-1,-1,-1,-1,-1,-1,-1,-1,-1,-1,-1,-1,-1,-1,-1,-1,-1,-1,-1,-1,-1],"loss_changes":[4.8136328E5,3.414403E5,1.9193338E5,2.7530462E5,3.9884906E4,6.573983E4,1.4725725E5,2.6774844E5,1.7460597E5,0E0,0E0,6.403364E4,2.8802701E4,1.26803625E5,5.1395812E4,2.2870188E5,6.026608E4,1.6492158E5,0E0,2.1561295E4,4.742275E4,1.7768479E4,1.7049379E4,1.2650208E5,0E0,3.7860125E4,4.4957336E1,1.6388825E5,2.270231E5,4.5964008E4,1.2851234E4,1.3690253E5,0E0,1.1350997E4,5.6533535E3,5.5892562E4,2.5819537E4,4.211412E3,7.771113E2,2.4647832E4,0E0,1.4644444E5,0E0,4.2355188E4,0E0,0E0,0E0,0E0,0E0,0E0,0E0,0E0,0E0,0E0,0E0,0E0,0E0,0E0,0E0,0E0,0E0,0E0,0E0,0E0,0E0,0E0,0E0,0E0,0E0,0E0,0E0,0E0,0E0,0E0,0E0],"parents":[2147483647,0,0,1,1,2,2,3,3,4,4,5,5,6,6,7,7,8,8,11,11,12,12,13,13,14,14,15,15,16,16,17,17,19,19,20,20,21,21,22,22,23,23,25,25,26,26,27,27,28,28,29,29,30,30,31,31,33,33,34,34,35,35,36,36,37,37,38,38,39,39,41,41,43,43],"right_children":[2,4,6,8,10,12,14,16,18,-1,-1,20,22,24,26,28,30,32,-1,34,36,38,40,42,-1,44,46,48,50,52,54,56,-1,58,60,62,64,66,68,70,-1,72,-1,74,-1,-1,-1,-1,-1,-1,-1,-1,-1,-1,-1,-1,-1,-1,-1,-1,-1,-1,-1,-1,-1,-1,-1,-1,-1,-1,-1,-1,-1,-1,-1],"split_conditions":[2.5890498E0,4.5624554E1,3.5740466E0,5.5645895E-1,-2.1335154E0,-4.0098816E-1,-4.0098816E-1,8.146682E-1,3.4E1,8.548621E0,8.405213E1,-4.9885827E-1,2.2222857E-1,1.3135829E1,2.7773743E0,3.0169933E0,1.3027084E1,2.1732882E1,6.3100883E1,1.4571923E0,2.3591468E0,1.371475E-1,5.8906704E1,1.0203921E2,9.0838776E1,1.0203921E2,7.3665917E-1,6.903541E0,5.1012253E1,1.8603764E1,2.065336E0,2.3411655E0,6.1305744E1,2.4228475E0,2.6328691E1,-1.0000895E0,1.8603764E1,7.3665917E-1,8.146682E-1,3.0751202E1,-8.206884E0,-1.3398196E-1,8.849289E1,3.8556084E1,-7.9891114E0,-5.920926E0,-1.2947514E0,7.635038E0,-6.2429395E0,3.7493767E1,-3.2150555E1,4.6591824E-1,3.2681732E1,6.4200106E0,1.6580542E1,1.9704829E-1,9.410114E0,-7.554218E-1,1.1785648E1,2.3165434E1,-6.081093E-1,4.921208E1,1.9054743E1,6.288503E0,3.6116005E1,5.850726E0,-6.331142E0,2.0476577E0,4.5407963E0,1.929723E1,-2.5221477E0,4.6438804E0,3.6175377E1,4.8096252E1,7.6549277E0],"split_indices":[0,267,2715,2692,0,22,22,2718,277,0,0,2719,22,13,35,19,2665,242,0,19,3,2720,1510,2268,0,1229,1,2691,1918,359,27,22,0,23,2433,2720,359,1,2718,1587,0,23,0,218,0,0,0,0,0,0,0,0,0,0,0,0,0,0,0,0,0,0,0,0,0,0,0,0,0,0,0,0,0,0,0],"split_type":[0,0,0,0,0,0,0,0,0,0,0,0,0,0,0,0,0,0,0,0,0,0,0,0,0,0,0,0,0,0,0,0,0,0,0,0,0,0,0,0,0,0,0,0,0,0,0,0,0,0,0,0,0,0,0,0,0,0,0,0,0,0,0,0,0,0,0,0,0,0,0,0,0,0,0],"sum_hessian":[1.0413E4,1.0079E4,3.34E2,1.0074E4,5E0,2.21E2,1.13E2,2.354E3,7.72E3,1E0,4E0,1.11E2,1.1E2,8E1,3.3E1,1.15E3,1.204E3,7.717E3,3E0,4.7E1,6.4E1,8.4E1,2.6E1,7.9E1,1E0,3.1E1,2E0,1.111E3,3.9E1,1.156E3,4.8E1,7.714E3,3E0,4.1E1,6E0,3.5E1,2.9E1,3.4E1,5E1,2.3E1,3E0,7.8E1,1E0,3E1,1E0,1E0,1E0,1.029E3,8.2E1,3.5E1,4E0,1.153E3,3E0,2.6E1,2.2E1,7.567E3,1.47E2,3.4E1,7E0,5E0,1E0,7E0,2.8E1,2.7E1,2E0,2E0,3.2E1,2.6E1,2.4E1,1.7E1,6E0,6.2E1,1.6E1,2.7E1,3E0],"tree_param":{"num_deleted":"0","num_feature":"2721","num_nodes":"75","size_leaf_vector":"0"}},{"base_weights":[4.0788827E0,3.4194674E0,4.9796032E1,8.537146E0,9.5099166E-2,4.5627575E1,7.081868E1,7.056971E0,4.1808643E1,-1.3502388E-1,3.6599617E1,4.219124E1,8.1584496E1,6.875154E0,7.177462E1,3.5294872E1,1.5585858E2,-3.1487206E-1,4.606161E1,1.1268374E1,3.5935516E1,3.533654E1,4.2554123E1,6.7318716E0,8.418519E1,3.2353413E1,7.721296E1,1.8143425E2,-7.312001E0,-3.901598E-1,2.7750774E1,2.8808897E1,4.7168297E1,-5.355013E-1,1.3558947E1,3.1909163E1,7.5218956E1,1.8986636E0,2.5191452E1,8.340124E0,5.120046E1,6.1325745E1,3.0809877E0,-4.603621E-1,1.6381257E0,1.3413255E0,1.4615345E1,-1.5471922E0,9.194186E-1,4.181356E0,6.1294574E-1,8.691099E0,6.429774E1],"categories":[],"categories_nodes":[],"categories_segments":[],"categories_sizes":[],"default_left":[0,0,0,0,0,0,0,0,0,0,0,0,0,0,0,0,0,0,0,0,0,0,0,0,0,0,0,0,0,0,0,0,0,0,0,0,0,0,0,0,0,0,0,0,0,0,0,0,0,0,0,0,0],"id":6,"left_children":[1,3,5,7,9,11,-1,13,15,17,19,21,-1,23,-1,25,27,29,31,33,-1,35,-1,37,-1,39,-1,41,-1,43,-1,45,-1,47,49,51,-1,-1,-1,-1,-1,-1,-1,-1,-1,-1,-1,-1,-1,-1,-1,-1,-1],"loss_changes":[3.1377625E5,1.7467216E5,1.04142625E5,1.9881306E5,5.2298246E4,1.0207247E5,0E0,1.618172E5,1.2227694E5,5.141846E4,8.083064E4,9.403867E4,0E0,1.4990164E5,0E0,9.880508E4,4.5908125E4,4.311021E4,4.1500418E4,8.45428E2,0E0,9.313745E4,0E0,1.1989916E5,0E0,9.790416E4,0E0,2.9374188E4,0E0,4.125136E4,0E0,1.0442049E4,0E0,1.1564313E2,8.497119E1,6.669941E4,0E0,0E0,0E0,0E0,0E0,0E0,0E0,0E0,0E0,0E0,0E0,0E0,0E0,0E0,0E0,0E0,0E0],"parents":[2147483647,0,0,1,1,2,2,3,3,4,4,5,5,7,7,8,8,9,9,10,10,11,11,13,13,15,15,16,16,17,17,18,18,19,19,21,21,23,23,25,25,27,27,29,29,31,31,33,33,34,34,35,35],"right_children":[2,4,6,8,10,12,-1,14,16,18,20,22,-1,24,-1,26,28,30,32,34,-1,36,-1,38,-1,40,-1,42,-1,44,-1,46,-1,48,50,52,-1,-1,-1,-1,-1,-1,-1,-1,-1,-1,-1,-1,-1,-1,-1,-1,-1],"split_conditions":[8.356838E0,8.146682E-1,7.2149155E1,2.5890498E0,1.5178933E1,1.0203921E2,7.081868E1,4.5624554E1,1.454339E1,1.892271E1,2.6972795E-1,1.8615002E1,8.1584496E1,1.0203921E2,7.177462E1,1.4396527E1,1.0203921E2,2.1732882E1,2.8284271E1,-1.3398196E-1,3.5935516E1,1.0203921E2,4.2554123E1,2.0384308E1,8.418519E1,6.136595E0,7.721296E1,1.0203921E2,-7.312001E0,3.1571108E-1,2.7750774E1,-1.0000895E0,4.7168297E1,2.2776718E-1,7.170614E-1,1.0203921E2,7.5218956E1,1.8986636E0,2.5191452E1,8.340124E0,5.120046E1,6.1325745E1,3.0809877E0,-4.603621E-1,1.6381257E0,1.3413255E0,1.4615345E1,-1.5471922E0,9.194186E-1,4.181356E0,6.1294574E-1,8.691099E0,6.429774E1],"split_indices":[2696,2718,362,0,1894,1446,0,2689,436,321,23,19,0,325,0,272,2520,157,196,23,0,2268,0,476,0,19,0,1333,0,22,0,2720,0,0,2719,2517,0,0,0,0,0,0,0,0,0,0,0,0,0,0,0,0,0],"split_type":[0,0,0,0,0,0,0,0,0,0,0,0,0,0,0,0,0,0,0,0,0,0,0,0,0,0,0,0,0,0,0,0,0,0,0,0,0,0,0,0,0,0,0,0,0,0,0,0,0,0,0,0,0],"sum_hessian":[1.0413E4,1.0266E4,1.47E2,4.042E3,6.224E3,1.45E2,2E0,3.871E3,1.71E2,6.186E3,3.8E1,1.44E2,1E0,3.869E3,2E0,1.63E2,8E0,6.163E3,2.3E1,3E1,8E0,1.36E2,8E0,3.868E3,1E0,1.62E2,1E0,7E0,1E0,6.159E3,4E0,2.1E1,2E0,5E0,2.5E1,1.35E2,1E0,3.849E3,1.9E1,1.58E2,4E0,6E0,1E0,5.152E3,1.007E3,1E1,1.1E1,2E0,3E0,2.4E1,1E0,1.34E2,1E0],"tree_param":{"num_deleted":"0","num_feature":"2721","num_nodes":"53","size_leaf_vector":"0"}},{"base_weights":[2.9370515E0,2.833743E0,1.8167072E2,2.1387796E0,2.3726044E1,6.9815288E0,6.260885E1,1.99063E0,8.480274E1,2.248708E1,6.563101E1,9.065978E-1,1.32815E1,1.0729903E1,3.613657E1,2.1274607E1,6.393611E1,8.3998644E-1,6.1303947E1,1.227501E1,1.2158038E2,2.0142303E1,5.9579895E1,2.3642506E-1,7.155741E1,-9.9522895E-1,5.4043536E0,4.0989677E1,2.432602E0,5.324396E0,2.8639364E1],"categories":[],"categories_nodes":[],"categories_segments":[],"categories_sizes":[],"default_left":[0,0,0,0,0,0,0,0,0,0,0,0,0,0,0,0,0,0,0,0,0,0,0,0,0,0,0,0,0,0,0],"id":7,"left_children":[1,3,5,7,9,-1,-1,11,13,15,-1,17,19,-1,-1,21,-1,23,-1,25,27,29,-1,-1,-1,-1,-1,-1,-1,-1,-1],"loss_changes":[1.9177678E5,1.510815E5,2.0828078E4,1.2321613E5,7.6034125E4,0E0,0E0,1.2309453E5,2.7160602E4,7.266597E4,0E0,1.2420325E5,9.453817E4,0E0,0E0,6.286139E4,0E0,1.1301205E5,0E0,7.8276484E4,1.2555781E4,5.818036E4,0E0,0E0,0E0,0E0,0E0,0E0,0E0,0E0,0E0],"parents":[2147483647,0,0,1,1,2,2,3,3,4,4,7,7,8,8,9,9,11,11,12,12,15,15,17,17,19,19,20,20,21,21],"right_children":[2,4,6,8,10,-1,-1,12,14,16,-1,18,20,-1,-1,22,-1,24,-1,26,28,30,-1,-1,-1,-1,-1,-1,-1,-1,-1],"split_conditions":[4.5624554E1,2.5890498E0,-2.1335154E0,2.403123E1,1.4396527E1,6.9815288E0,6.260885E1,3.2771285E0,-4.0098816E-1,1.0203921E2,6.563101E1,3.8556084E1,3.5740466E0,1.0729903E1,3.613657E1,1.0203921E2,6.393611E1,1.0203921E2,6.1303947E1,-6.2101054E-1,4.2842755E0,1.454339E1,5.9579895E1,2.3642506E-1,7.155741E1,-9.9522895E-1,5.4043536E0,4.0989677E1,2.432602E0,5.324396E0,2.8639364E1],"split_indices":[267,0,0,465,272,0,0,2684,22,2268,0,338,2715,0,0,2159,0,325,0,2720,6,436,0,0,0,0,0,0,0,0,0],"split_type":[0,0,0,0,0,0,0,0,0,0,0,0,0,0,0,0,0,0,0,0,0,0,0,0,0,0,0,0,0,0,0],"sum_hessian":[1.0413E4,1.0408E4,5E0,1.0074E4,3.34E2,1E0,4E0,1.0057E4,1.7E1,3.33E2,1E0,9.177E3,8.8E2,8E0,9E0,3.32E2,1E0,9.175E3,2E0,8.73E2,7E0,3.31E2,1E0,9.174E3,1E0,2.35E2,6.38E2,6E0,1E0,3.22E2,9E0],"tree_param":{"num_deleted":"0","num_feature":"2721","num_nodes":"31","size_leaf_vector":"0"}},{"base_weights":[2.1059163E0,2.0108562E0,1.666683E2,1.8755682E0,8.977167E1,7.229796E1,2.0777271E1,1.7510731E0,2.8216383E1,9.978917E1,-9.073631E0,1.3613476E0,2.9447323E1,1.1112669E2,-8.840424E0,1.2700046E0,1.18007324E2,2.642195E1,6.9311356E1,1.2330693E2,-7.0824647E0,3.642495E-1,5.7372417E1,-1.1975954E1,5.319091E1,6.834601E0,5.660766E1,3.9451797E1,3.737763E0],"categories":[],"categories_nodes":[],"categories_segments":[],"categories_sizes":[],"default_left":[0,0,0,0,0,0,0,0,0,0,0,0,0,0,0,0,0,0,0,0,0,0,0,0,0,0,0,0,0],"id":8,"left_children":[1,3,5,7,9,-1,-1,11,-1,13,-1,15,17,19,-1,21,23,25,-1,27,-1,-1,-1,-1,-1,-1,-1,-1,-1],"loss_changes":[1.6257431E5,1.2341755E5,2.674964E4,1.1911502E5,2.2254531E4,0E0,0E0,1.1201178E5,0E0,2.5256547E4,0E0,1.0893378E5,8.171918E4,2.5886516E4,0E0,1.0829765E5,8.1993125E4,8.01649E4,0E0,1.0176531E4,0E0,0E0,0E0,0E0,0E0,0E0,0E0,0E0,0E0],"parents":[2147483647,0,0,1,1,2,2,3,3,4,4,7,7,9,9,11,11,12,12,13,13,15,15,16,16,17,17,19,19],"right_children":[2,4,6,8,10,-1,-1,12,-1,14,-1,16,18,20,-1,22,24,26,-1,28,-1,-1,-1,-1,-1,-1,-1,-1,-1],"split_conditions":[4.5624554E1,2.6328691E1,7.696396E0,2.8284271E1,1.0203921E2,7.229796E1,2.0777271E1,8.356838E0,2.8216383E1,1.0203921E2,-9.073631E0,3.8556084E1,1.0203921E2,2.7773743E0,-8.840424E0,7.2149155E1,8.0685973E-1,7.2149155E1,6.9311356E1,1.0203921E2,-7.0824647E0,3.642495E-1,5.7372417E1,-1.1975954E1,5.319091E1,6.834601E0,5.660766E1,3.9451797E1,3.737763E0],"split_indices":[2022,364,19,492,1696,0,0,2696,0,1229,0,338,1446,35,0,141,9,362,0,1131,0,0,0,0,0,0,0,0,0],"split_type":[0,0,0,0,0,0,0,0,0,0,0,0,0,0,0,0,0,0,0,0,0,0,0,0,0,0,0,0,0],"sum_hessian":[1.0413E4,1.0408E4,5E0,1.0393E4,1.5E1,2E0,3E0,1.038E4,1.3E1,1.4E1,1E0,1.0237E4,1.43E2,1.3E1,1E0,1.023E4,7E0,1.42E2,1E0,1.2E1,1E0,1.0228E4,2E0,2E0,5E0,1.4E2,2E0,1.1E1,1E0],"tree_param":{"num_deleted":"0","num_feature":"2721","num_nodes":"29","size_leaf_vector":"0"}},{"base_weights":[1.5097849E0,1.2479438E0,4.9918755E1,1.1481655E0,1.0439367E2,5.413502E1,-2.7296408E1,9.839581E-1,6.3893673E1,7.5151844E0,1.2109811E2,4.0928345E1,1.1708823E2,9.0008163E-1,1.0903021E2,3.1923979E1,2.8760069E1,4.300503E1,1.8902578E1,3.29402E1,4.4132305E1,1.5768097E2,-1.6657593E1,8.5851043E-1,6.4462234E1,6.73952E1,-5.272197E0,-1.8675753E1,7.182929E1,3.85666E1,-1.7605469E1,1.8660413E2,1.7074617E1,-2.1025356E1,1.3529439E1,2.4529289E-1,6.3361095E1,-1.7255136E1,1.4619037E1,2.2676903E1,5.1338177E0,1.3118458E1,-1.3449207E1,6.2516773E1,1.4919559E1],"categories":[],"categories_nodes":[],"categories_segments":[],"categories_sizes":[],"default_left":[0,0,0,0,0,0,0,0,0,0,0,0,0,0,0,0,0,0,0,0,0,0,0,0,0,0,0,0,0,0,0,0,0,0,0,0,0,0,0,0,0,0,0,0,0],"id":9,"left_children":[1,3,5,7,9,11,-1,13,15,-1,17,19,21,23,25,27,-1,-1,-1,29,-1,31,33,35,-1,-1,37,-1,39,41,-1,43,-1,-1,-1,-1,-1,-1,-1,-1,-1,-1,-1,-1,-1],"loss_changes":[1.3193992E5,1.0649189E5,3.819528E4,1.0657602E5,1.0220234E4,4.093492E4,0E0,9.346356E4,2.453825E4,0E0,1.3085703E3,3.50185E4,5.1488594E4,9.158679E4,1.0690998E5,6.084369E4,0E0,0E0,0E0,2.546164E4,0E0,9.7805625E3,1.3058937E4,8.850665E4,0E0,0E0,1.690955E4,0E0,9.697656E2,2.0470258E4,0E0,4.545297E3,0E0,0E0,0E0,0E0,0E0,0E0,0E0,0E0,0E0,0E0,0E0,0E0,0E0],"parents":[2147483647,0,0,1,1,2,2,3,3,4,4,5,5,7,7,8,8,10,10,11,11,12,12,13,13,14,14,15,15,19,19,21,21,22,22,23,23,26,26,28,28,29,29,31,31],"right_children":[2,4,6,8,10,12,-1,14,16,-1,18,20,22,24,26,28,-1,-1,-1,30,-1,32,34,36,-1,-1,38,-1,40,42,-1,44,-1,-1,-1,-1,-1,-1,-1,-1,-1,-1,-1,-1,-1],"split_conditions":[6.136595E0,3.4E1,1.0203921E2,1.9987495E1,-1.0054915E0,6.1573476E-1,-2.7296408E1,3.8556084E1,7.3665917E-1,7.5151844E0,1.4571923E0,2.3294405E1,5.8906704E1,1.0203921E2,-2.96205E-1,1.599069E-1,2.8760069E1,4.300503E1,1.8902578E1,5.1012253E1,4.4132305E1,9.256197E0,2.545703E0,1.0203921E2,6.4462234E1,6.73952E1,7.3665917E-1,-1.8675753E1,1.2743845E0,2.1254156E1,-1.7605469E1,2.3591468E0,1.7074617E1,-2.1025356E1,1.3529439E1,2.4529289E-1,6.3361095E1,-1.7255136E1,1.4619037E1,2.2676903E1,5.1338177E0,1.3118458E1,-1.3449207E1,6.2516773E1,1.4919559E1],"split_indices":[19,143,1486,2381,2719,2719,0,218,1,0,19,19,2618,1730,2719,22,0,0,0,1918,0,19,2705,2306,0,0,1,0,2720,481,0,3,0,0,0,0,0,0,0,0,0,0,0,0,0],"split_type":[0,0,0,0,0,0,0,0,0,0,0,0,0,0,0,0,0,0,0,0,0,0,0,0,0,0,0,0,0,0,0,0,0,0,0,0,0,0,0,0,0,0,0,0,0],"sum_hessian":[1.0413E4,1.0358E4,5.5E1,1.0349E4,9E0,5.4E1,1E0,1.0323E4,2.6E1,2E0,7E0,4.6E1,8E0,1.0316E4,7E0,1.4E1,1.2E1,4E0,3E0,4.4E1,2E0,6E0,2E0,1.0315E4,1E0,3E0,4E0,4E0,1E1,4.2E1,2E0,4E0,2E0,1E0,1E0,1.0314E4,1E0,2E0,2E0,9E0,1E0,4E1,2E0,3E0,1E0],"tree_param":{"num_deleted":"0","num_feature":"2721","num_nodes":"45","size_leaf_vector":"0"}},{"base_weights":[1.0939205E0,1.0236988E0,1.2273446E2,9.8489606E-1,6.073236E1,5.650199E1,1.2854013E1,9.4692564E-1,5.942147E1,9.0899867E-1,5.934229E1,7.827733E-1,5.785748E1,2.1047184E-1,2.5485023E1,5.184262E1,7.368606E0],"categories":[],"categories_nodes":[],"categories_segments":[],"categories_sizes":[],"default_left":[0,0,0,0,0,0,0,0,0,0,0,0,0,0,0,0,0],"id":10,"left_children":[1,3,5,7,-1,-1,-1,9,-1,11,-1,13,15,-1,-1,-1,-1],"loss_changes":[8.882865E4,8.115263E4,2.337671E4,7.770034E4,0E0,0E0,0E0,7.7522336E4,0E0,7.47566E4,0E0,7.090913E4,8.378463E4,0E0,0E0,0E0,0E0],"parents":[2147483647,0,0,1,1,2,2,3,3,7,7,9,9,11,11,12,12],"right_children":[2,4,6,8,-1,-1,-1,10,-1,12,-1,14,16,-1,-1,-1,-1],"split_conditions":[4.5624554E1,1.0203921E2,7.696396E0,1.0203921E2,6.073236E1,5.650199E1,1.2854013E1,1.0203921E2,5.942147E1,2.1732882E1,5.934229E1,3.4E1,4.5001135E0,2.1047184E-1,2.5485023E1,5.184262E1,7.368606E0],"split_indices":[2022,325,19,1610,0,0,0,1459,0,242,0,277,180,0,0,0,0],"split_type":[0,0,0,0,0,0,0,0,0,0,0,0,0,0,0,0,0],"sum_hessian":[1.0413E4,1.0408E4,5E0,1.0407E4,1E0,2E0,3E0,1.0406E4,1E0,1.0405E4,1E0,1.0383E4,2.2E1,1.0374E4,9E0,4E0,1.8E1],"tree_param":{"num_deleted":"0","num_feature":"2721","num_nodes":"17","size_leaf_vector":"0"}},{"base_weights":[7.9779357E-1,7.3338014E-1,1.1241137E2,6.973821E-1,5.6310177E1,5.811297E0,3.8143578E1,6.5349656E-1,4.5806778E1,6.178949E-1,5.5663357E1,5.7456946E-1,4.5194973E1,1.4017804E-1,1.7759216E1],"categories":[],"categories_nodes":[],"categories_segments":[],"categories_sizes":[],"default_left":[0,0,0,0,0,0,0,0,0,0,0,0,0,0,0],"id":11,"left_children":[1,3,5,7,-1,-1,-1,9,-1,11,-1,13,-1,-1,-1],"loss_changes":[7.478811E4,6.9926414E4,5.7621484E3,6.932414E4,0E0,0E0,0E0,6.838214E4,0E0,6.754795E4,0E0,6.5415312E4,0E0,0E0,0E0],"parents":[2147483647,0,0,1,1,2,2,3,3,7,7,9,9,11,11],"right_children":[2,4,6,8,-1,-1,-1,10,-1,12,-1,14,-1,-1,-1],"split_conditions":[4.5624554E1,1.0203921E2,-2.1335154E0,7.2149155E1,5.6310177E1,5.811297E0,3.8143578E1,3.9557716E1,4.5806778E1,7.2149155E1,5.5663357E1,2.403123E1,4.5194973E1,1.4017804E-1,1.7759216E1],"split_indices":[267,2487,0,141,0,0,0,26,0,362,0,465,0,0,0],"split_type":[0,0,0,0,0,0,0,0,0,0,0,0,0,0,0],"sum_hessian":[1.0413E4,1.0408E4,5E0,1.0407E4,1E0,1E0,4E0,1.0405E4,2E0,1.0404E4,1E0,1.0402E4,2E0,1.0384E4,1.8E1],"tree_param":{"num_deleted":"0","num_feature":"2721","num_nodes":"15","size_leaf_vector":"0"}},{"base_weights":[5.8388543E-1,5.4949456E-1,5.3804337E1,3.3338922E-1,2.8814047E1,2.4228919E-1,6.747632E1,-4.313014E0,5.81001E1,5.9383534E-2,3.3771755E1,4.9814213E1,4.4562557E1,1.7957314E1,-1.15235815E1,6.119948E1,-7.7748644E-1,-1.826203E-2,7.970226E1,2.9032782E1,4.4162304E1,-2.9599605E0,5.560982E1,-8.562596E0,-8.273094E0,4.9463684E1,7.9461395E1,-2.3617344E-1,2.4290335E0,5.942018E0,2.7660093E1,6.744268E0,3.2084743E1,2.0567814E1,9.37011E0,-3.142523E0,-5.264488E-1,1.5389945E1,2.5864565E-1,2.6033863E1,1.1841344E1],"categories":[],"categories_nodes":[],"categories_segments":[],"categories_sizes":[],"default_left":[0,0,0,0,0,0,0,0,0,0,0,0,0,0,0,0,0,0,0,0,0,0,0,0,0,0,0,0,0,0,0,0,0,0,0,0,0,0,0,0,0],"id":12,"left_children":[1,3,-1,5,7,9,11,13,15,17,19,21,-1,-1,23,25,-1,27,29,31,-1,-1,33,35,-1,37,39,-1,-1,-1,-1,-1,-1,-1,-1,-1,-1,-1,-1,-1,-1],"loss_changes":[6.3925035E4,6.359427E4,0E0,6.319998E4,7.689329E4,6.330003E4,1.2645543E4,1.8272656E4,8.0590938E3,6.3491727E4,2.5830066E4,5.045199E3,0E0,0E0,1.4275557E3,4.6422812E3,0E0,6.4019637E4,5.659582E3,2.5673148E4,0E0,0E0,1.6465586E3,3.852295E2,0E0,2.3652188E3,6.71875E2,0E0,0E0,0E0,0E0,0E0,0E0,0E0,0E0,0E0,0E0,0E0,0E0,0E0,0E0],"parents":[2147483647,0,0,1,1,3,3,4,4,5,5,6,6,7,7,8,8,9,9,10,10,11,11,14,14,15,15,17,17,18,18,19,19,22,22,23,23,25,25,26,26],"right_children":[2,4,-1,6,8,10,12,14,16,18,20,22,-1,-1,24,26,-1,28,30,32,-1,-1,34,36,-1,38,40,-1,-1,-1,-1,-1,-1,-1,-1,-1,-1,-1,-1,-1,-1],"split_conditions":[1.0203921E2,2.7150955E0,5.3804337E1,1.4892273E1,1.7937382E0,6.136595E0,1.9987495E1,2.9643822E0,7.2149155E1,3.4E1,1.2743845E0,2.2776718E-1,4.4562557E1,1.7957314E1,2.7773743E0,3.587599E0,-7.7748644E-1,3.2771285E0,-1.0054915E0,2.3294405E1,4.4162304E1,-2.9599605E0,2.250477E0,1.610357E1,-8.273094E0,8.279401E-1,2.4123127E0,-2.3617344E-1,2.4290335E0,5.942018E0,2.7660093E1,6.744268E0,3.2084743E1,2.0567814E1,9.37011E0,-3.142523E0,-5.264488E-1,1.5389945E1,2.5864565E-1,2.6033863E1,1.1841344E1],"split_indices":[2306,22,0,21,57,19,264,22,328,143,2720,0,0,0,35,22,0,2684,2719,19,0,0,2716,1959,0,16,2717,0,0,0,0,0,0,0,0,0,0,0,0,0,0],"split_type":[0,0,0,0,0,0,0,0,0,0,0,0,0,0,0,0,0,0,0,0,0,0,0,0,0,0,0,0,0,0,0,0,0,0,0,0,0,0,0,0,0],"sum_hessian":[1.0413E4,1.0412E4,1E0,1.0334E4,7.8E1,1.0321E4,1.3E1,3.7E1,4.1E1,1.0266E4,5.5E1,1.2E1,1E0,3E0,3.4E1,3.9E1,2E0,1.0257E4,9E0,5.4E1,1E0,1E0,1.1E1,3E1,4E0,2.6E1,1.3E1,9.37E3,8.87E2,2E0,7E0,5.1E1,3E0,6E0,5E0,2.3E1,7E0,2.5E1,1E0,1E1,3E0],"tree_param":{"num_deleted":"0","num_feature":"2721","num_nodes":"41","size_leaf_vector":"0"}},{"base_weights":[4.378051E-1,3.708816E-1,8.744218E1,3.374796E-1,5.2192814E1,-9.652718E0,3.980323E1,3.0442736E-1,5.1636898E1,2.7208275E-1,5.052265E1,2.0738886E-1,8.4315865E1,5.2515965E-2,5.045534E1,5.2205524E1,-1.2928021E0],"categories":[],"categories_nodes":[],"categories_segments":[],"categories_sizes":[],"default_left":[0,0,0,0,0,0,0,0,0,0,0,0,0,0,0,0,0],"id":13,"left_children":[1,3,5,7,-1,-1,-1,9,-1,11,-1,13,15,-1,-1,-1,-1],"loss_changes":[6.06045E4,6.0288977E4,4.755657E4,5.9031773E4,0E0,0E0,0E0,5.6528973E4,0E0,5.6550297E4,0E0,5.644342E4,6.434915E4,0E0,0E0,0E0,0E0],"parents":[2147483647,0,0,1,1,2,2,3,3,7,7,9,9,11,11,12,12],"right_children":[2,4,6,8,-1,-1,-1,10,-1,12,-1,14,16,-1,-1,-1,-1],"split_conditions":[3.8556084E1,1.0203921E2,8.0685973E-1,1.0203921E2,5.2192814E1,-9.652718E0,3.980323E1,1.0203921E2,5.1636898E1,3.8556084E1,5.052265E1,1.0203921E2,-2.96205E-1,5.2515965E-2,5.045534E1,5.2205524E1,-1.2928021E0],"split_indices":[338,2268,9,325,0,0,0,1610,0,218,0,1459,2719,0,0,0,0],"split_type":[0,0,0,0,0,0,0,0,0,0,0,0,0,0,0,0,0],"sum_hessian":[1.0413E4,1.0406E4,7E0,1.0405E4,1E0,2E0,5E0,1.0404E4,1E0,1.0403E4,1E0,1.0396E4,7E0,1.0395E4,1E0,3E0,4E0],"tree_param":{"num_deleted":"0","num_feature":"2721","num_nodes":"17","size_leaf_vector":"0"}},{"base_weights":[3.339194E-1,3.0222455E-1,4.9555878E1,2.1977772E-1,1.8458055E1,1.5765177E-1,2.4270508E1,6.9671296E-2,5.721413E1,3.891048E-2,4.78912E1,9.2905975E1,1.9130924E1,2.5490958E-3,4.73414E1,3.389133E1,6.542119E0,1.5351261E1,-1.0113518E1],"categories":[],"categories_nodes":[],"categories_segments":[],"categories_sizes":[],"default_left":[0,0,0,0,0,0,0,0,0,0,0,0,0,0,0,0,0,0,0],"id":14,"left_children":[1,3,-1,5,-1,7,-1,9,11,13,-1,15,17,-1,-1,-1,-1,-1,-1],"loss_changes":[5.436293E4,5.2548965E4,0E0,5.211663E4,0E0,5.2167375E4,0E0,5.093349E4,1.9970785E4,4.978966E4,0E0,8.949297E3,1.6962738E4,0E0,0E0,0E0,0E0,0E0,0E0],"parents":[2147483647,0,0,1,1,3,3,5,5,7,7,8,8,9,9,11,11,12,12],"right_children":[2,4,-1,6,-1,8,-1,10,12,14,-1,16,18,-1,-1,-1,-1,-1,-1],"split_conditions":[1.0203921E2,2.8284271E1,4.9555878E1,3.8556084E1,1.8458055E1,2.6328691E1,2.4270508E1,1.0203921E2,8.0685973E-1,3.9557716E1,4.78912E1,7.2149155E1,7.689459E-1,2.5490958E-3,4.73414E1,3.389133E1,6.542119E0,1.5351261E1,-1.0113518E1],"split_indices":[2159,492,0,1883,0,364,0,2487,9,26,0,2254,2720,0,0,0,0,0,0],"split_type":[0,0,0,0,0,0,0,0,0,0,0,0,0,0,0,0,0,0,0],"sum_hessian":[1.0413E4,1.0412E4,1E0,1.0399E4,1.3E1,1.0392E4,7E0,1.0377E4,1.5E1,1.0376E4,1E0,7E0,8E0,1.0375E4,1E0,5E0,2E0,5E0,3E0],"tree_param":{"num_deleted":"0","num_feature":"2721","num_nodes":"19","size_leaf_vector":"0"}},{"base_weights":[2.561359E-1,1.9971798E-1,8.410494E1,1.6961473E-1,4.7022644E1,2.899804E1,1.3160797E0,1.3328813E-1,3.7831753E1,1.0370763E-1,4.6183327E1,-8.8329756E-1,4.768703E0,9.2417216E-1,-7.414251E-1,1.3485234E0,2.2463465E1],"categories":[],"categories_nodes":[],"categories_segments":[],"categories_sizes":[],"default_left":[0,0,0,0,0,0,0,0,0,0,0,0,0,0,0,0,0],"id":15,"left_children":[1,3,5,7,-1,-1,-1,9,-1,11,-1,13,15,-1,-1,-1,-1],"loss_changes":[4.9247426E4,4.9020453E4,6.582078E3,4.7593496E4,0E0,0E0,0E0,4.7324812E4,0E0,4.790813E4,0E0,5.4069945E4,3.4520258E4,0E0,0E0,0E0,0E0],"parents":[2147483647,0,0,1,1,2,2,3,3,7,7,9,9,11,11,12,12],"right_children":[2,4,6,8,-1,-1,-1,10,-1,12,-1,14,16,-1,-1,-1,-1],"split_conditions":[4.1647327E1,1.0203921E2,4.2842755E0,7.2149155E1,4.7022644E1,2.899804E1,1.3160797E0,1.0203921E2,3.7831753E1,3.1571108E-1,4.6183327E1,5.5645895E-1,2.2245384E1,9.2417216E-1,-7.414251E-1,1.3485234E0,2.2463465E1],"split_indices":[2432,1730,6,1863,0,0,0,2282,0,22,0,2692,527,0,0,0,0],"split_type":[0,0,0,0,0,0,0,0,0,0,0,0,0,0,0,0,0],"sum_hessian":[1.0413E4,1.0407E4,6E0,1.0406E4,1E0,5E0,1E0,1.0404E4,2E0,1.0403E4,1E0,8.587E3,1.816E3,2.456E3,6.131E3,1.81E3,6E0],"tree_param":{"num_deleted":"0","num_feature":"2721","num_nodes":"17","size_leaf_vector":"0"}},{"base_weights":[1.9709265E-1,1.677658E-1,4.583664E1,1.3239425E-1,3.685888E1,9.7356945E-2,3.649681E1,-7.7896104E-3,4.0528442E1,-5.7369314E-2,8.574987E1,1.5767508E1,1.9794357E1,-2.5736088E-2,4.422488E1,4.052655E1,8.192528E0,-1.4056318E1,1.2839581E1],"categories":[],"categories_nodes":[],"categories_segments":[],"categories_sizes":[],"default_left":[0,0,0,0,0,0,0,0,0,0,0,0,0,0,0,0,0,0,0],"id":16,"left_children":[1,3,-1,5,-1,7,-1,9,11,13,15,17,-1,-1,-1,-1,-1,-1,-1],"loss_changes":[4.6577367E4,4.517531E4,0E0,4.4316742E4,0E0,4.4250945E4,0E0,4.415177E4,1.5975953E4,4.3505316E4,1.3611473E4,2.7396379E4,0E0,0E0,0E0,0E0,0E0,0E0,0E0],"parents":[2147483647,0,0,1,1,3,3,5,5,7,7,8,8,9,9,10,10,11,11],"right_children":[2,4,-1,6,-1,8,-1,10,12,14,16,18,-1,-1,-1,-1,-1,-1,-1],"split_conditions":[1.0203921E2,7.2149155E1,4.583664E1,7.2149155E1,3.685888E1,1.9987495E1,3.649681E1,4.5624554E1,7.3665917E-1,1.0203921E2,7.696396E0,1.599069E-1,1.9794357E1,-2.5736088E-2,4.422488E1,4.052655E1,8.192528E0,-1.4056318E1,1.2839581E1],"split_indices":[2306,2439,0,141,0,2381,0,2022,1,2268,19,22,0,0,0,0,0,0,0],"split_type":[0,0,0,0,0,0,0,0,0,0,0,0,0,0,0,0,0,0,0],"sum_hessian":[1.0413E4,1.0412E4,1E0,1.041E4,2E0,1.0408E4,2E0,1.0382E4,2.6E1,1.0377E4,5E0,1.4E1,1.2E1,1.0376E4,1E0,2E0,3E0,4E0,1E1],"tree_param":{"num_deleted":"0","num_feature":"2721","num_nodes":"19","size_leaf_vector":"0"}},{"base_weights":[1.6011679E-1,1.2556003E-1,3.6012516E1,9.755288E-2,4.375621E1,7.0023514E-2,4.3001736E1,4.261224E-2,4.2809097E1,-8.0782205E-2,3.124833E1,-5.373614E-2,1.1713746E1,-7.864542E-2,1.2843273E1],"categories":[],"categories_nodes":[],"categories_segments":[],"categories_sizes":[],"default_left":[0,0,0,0,0,0,0,0,0,0,0,0,0,0,0],"id":17,"left_children":[1,3,-1,5,-1,7,-1,9,-1,11,13,-1,-1,-1,-1],"loss_changes":[4.3127195E4,4.2481727E4,0E0,4.1044168E4,0E0,4.0692723E4,0E0,4.008354E4,0E0,3.9903188E4,1.4949266E4,0E0,0E0,0E0,0E0],"parents":[2147483647,0,0,1,1,3,3,5,5,7,7,9,9,10,10],"right_children":[2,4,-1,6,-1,8,-1,10,-1,12,14,-1,-1,-1,-1],"split_conditions":[7.2149155E1,1.0203921E2,3.6012516E1,1.0203921E2,4.375621E1,1.0203921E2,4.3001736E1,1.4767083E1,4.2809097E1,2.0384308E1,2.7773743E0,-5.373614E-2,1.1713746E1,-7.864542E-2,1.2843273E1],"split_indices":[362,325,0,1459,0,1610,0,20,0,476,35,0,0,0,0],"split_type":[0,0,0,0,0,0,0,0,0,0,0,0,0,0,0],"sum_hessian":[1.0413E4,1.0411E4,2E0,1.041E4,1E0,1.0409E4,1E0,1.0408E4,1E0,1.0368E4,4E1,1.0343E4,2.5E1,1.1E1,2.9E1],"tree_param":{"num_deleted":"0","num_feature":"2721","num_nodes":"15","size_leaf_vector":"0"}},{"base_weights":[1.3032669E-1,1.0345243E-1,4.199579E1,1.6259265E-1,-6.1436375E1,1.3644233E-1,4.0830654E1,-7.0743965E1,-4.841205E0,1.1028723E-1,4.0830276E1,-8.350448E0,-2.4122364E1,4.919351E-2,5.7817158E1,1.2319979E-3,2.3428156E1,2.2078702E0,3.506831E1],"categories":[],"categories_nodes":[],"categories_segments":[],"categories_sizes":[],"default_left":[0,0,0,0,0,0,0,0,0,0,0,0,0,0,0,0,0,0,0],"id":18,"left_children":[1,3,-1,5,7,9,-1,11,-1,13,-1,-1,-1,15,17,-1,-1,-1,-1],"loss_changes":[3.9126703E4,3.790788E4,0E0,3.6966227E4,3.074629E3,3.6979777E4,0E0,1.0792188E3,0E0,3.6669688E4,0E0,0E0,0E0,3.656692E4,3.1929531E4,0E0,0E0,0E0,0E0],"parents":[2147483647,0,0,1,1,3,3,4,4,5,5,7,7,9,9,13,13,14,14],"right_children":[2,4,-1,6,8,10,-1,12,-1,14,-1,-1,-1,16,18,-1,-1,-1,-1],"split_conditions":[1.0203921E2,3.4E1,4.199579E1,1.0203921E2,5.1012253E1,1.0203921E2,4.0830654E1,-2.1335154E0,-4.841205E0,3.225368E1,4.0830276E1,-8.350448E0,-2.4122364E1,4.5624554E1,2.8812754E0,1.2319979E-3,2.3428156E1,2.2078702E0,3.506831E1],"split_indices":[2159,251,0,2487,1306,1446,0,0,0,89,0,0,0,267,21,0,0,0,0],"split_type":[0,0,0,0,0,0,0,0,0,0,0,0,0,0,0,0,0,0,0],"sum_hessian":[1.0413E4,1.0412E4,1E0,1.0403E4,9E0,1.0402E4,1E0,7E0,2E0,1.0401E4,1E0,2E0,5E0,1.0391E4,1E1,1.0386E4,5E0,6E0,4E0],"tree_param":{"num_deleted":"0","num_feature":"2721","num_nodes":"19","size_leaf_vector":"0"}},{"base_weights":[1.0534888E-1,1.464139E-1,-8.541313E1,1.2057654E-1,4.0363148E1,-3.379181E1,-8.91476E0,9.497899E-2,3.9980984E1,-7.508653E0,5.3628606E-1,-7.8848734E0,1.4337529E1,7.122731E-2,1.1340136E1,-2.1556175E0,-7.2441454E0,-1.1753972E-2,1.643315E1,3.0026698E0,2.9526327E1],"categories":[],"categories_nodes":[],"categories_segments":[],"categories_sizes":[],"default_left":[0,0,0,0,0,0,0,0,0,0,0,0,0,0,0,0,0,0,0,0,0],"id":19,"left_children":[1,3,5,7,-1,-1,-1,9,-1,11,13,15,-1,17,19,-1,-1,-1,-1,-1,-1],"loss_changes":[3.6584598E4,3.6132254E4,4.234957E3,3.5464312E4,0E0,0E0,0E0,3.4928453E4,0E0,1.22565625E4,4.9429477E4,6.2875938E3,0E0,5.69768E4,4.60806E4,0E0,0E0,0E0,0E0,0E0,0E0],"parents":[2147483647,0,0,1,1,2,2,3,3,7,7,9,9,10,10,11,11,13,13,14,14],"right_children":[2,4,6,8,-1,-1,-1,10,-1,12,14,16,-1,18,20,-1,-1,-1,-1,-1,-1],"split_conditions":[5.1012253E1,3.9557716E1,1.2334194E1,1.0203921E2,4.0363148E1,-3.379181E1,-8.91476E0,-1.8161047E0,3.9980984E1,5.3833866E0,4.5001135E0,2.250477E0,1.4337529E1,1.5713961E1,1.5905208E1,-2.1556175E0,-7.2441454E0,-1.1753972E-2,1.643315E1,3.0026698E0,2.9526327E1],"split_indices":[1918,26,2686,1730,0,0,0,2719,0,23,180,2716,0,5,363,0,0,0,0,0,0],"split_type":[0,0,0,0,0,0,0,0,0,0,0,0,0,0,0,0,0,0,0,0,0],"sum_hessian":[1.0413E4,1.0409E4,4E0,1.0408E4,1E0,2E0,2E0,1.0407E4,1E0,5.7E2,9.837E3,5.67E2,3E0,9.432E3,4.05E2,5.45E2,2.2E1,9.414E3,1.8E1,4E2,5E0],"tree_param":{"num_deleted":"0","num_feature":"2721","num_nodes":"21","size_leaf_vector":"0"}},{"base_weights":[8.253259E-2,-3.9497413E-2,2.7587894E1,-9.0250686E-2,6.570361E1,9.499974E0,2.7526321E1,-1.15526795E-1,3.9269325E1,-7.5564E0,3.0059649E1,2.2560865E1,7.233174E0,-1.7199458E-1,5.8351482E1,6.920343E0,1.2768444E1,-8.619634E-1,9.064018E0,-2.4906301E-1,4.175417E1,4.575768E0,6.721964E1,2.200061E-1,2.6214664E0,-3.7455335E0,6.711293E-1,9.49865E0,-3.354627E-1,-1.012224E-1,1.0436793E1,2.6129029E0,2.1186974E1,3.1207005E1,1.1284357E1,-1.2745717E0,-3.354627E-1,2.9669287E0,-4.187107E-2],"categories":[],"categories_nodes":[],"categories_segments":[],"categories_sizes":[],"default_left":[0,0,0,0,0,0,0,0,0,0,0,0,0,0,0,0,0,0,0,0,0,0,0,0,0,0,0,0,0,0,0,0,0,0,0,0,0,0,0],"id":20,"left_children":[1,3,5,7,9,11,-1,13,-1,-1,-1,15,17,19,21,23,-1,25,27,29,31,-1,33,-1,-1,35,-1,37,-1,-1,-1,-1,-1,-1,-1,-1,-1,-1,-1],"loss_changes":[3.4955465E4,3.460395E4,5.251772E4,3.432232E4,2.7606406E4,9.322517E2,0E0,3.421691E4,0E0,0E0,0E0,1.2695603E3,4.9690356E2,3.3459613E4,2.7968125E3,3.858058E1,0E0,7.093364E1,1.301106E2,3.2000275E4,1.7510215E4,0E0,4.803836E3,0E0,0E0,5.357895E-1,0E0,9.9390625E1,0E0,0E0,0E0,0E0,0E0,0E0,0E0,0E0,0E0,0E0,0E0],"parents":[2147483647,0,0,1,1,2,2,3,3,4,4,5,5,7,7,11,11,12,12,13,13,14,14,15,15,17,17,18,18,19,19,20,20,22,22,25,25,27,27],"right_children":[2,4,6,8,10,12,-1,14,-1,-1,-1,16,18,20,22,24,-1,26,28,30,32,-1,34,-1,-1,36,-1,38,-1,-1,-1,-1,-1,-1,-1,-1,-1,-1,-1],"split_conditions":[1.5178933E1,3.8556084E1,2.6972795E-1,1.0203921E2,8.0685973E-1,-2.96205E-1,2.7526321E1,3.4E1,3.9269325E1,-7.5564E0,3.0059649E1,-7.0151156E-1,-1.3398196E-1,2.403123E1,-1.0054915E0,7.3665917E-1,1.2768444E1,-1.9918747E-1,2.250477E0,2.0384308E1,-4.0098816E-1,4.575768E0,2.250477E0,2.200061E-1,2.6214664E0,2.2776718E-1,6.711293E-1,6.854646E0,-3.354627E-1,-1.012224E-1,1.0436793E1,2.6129029E0,2.1186974E1,3.1207005E1,1.1284357E1,-1.2745717E0,-3.354627E-1,2.9669287E0,-4.187107E-2],"split_indices":[1894,338,23,2282,9,2719,0,143,0,0,0,2719,23,465,2719,1,0,27,2716,200,22,0,2716,0,0,0,0,469,0,0,0,0,0,0,0,0,0,0,0],"split_type":[0,0,0,0,0,0,0,0,0,0,0,0,0,0,0,0,0,0,0,0,0,0,0,0,0,0,0,0,0,0,0,0,0,0,0,0,0,0,0],"sum_hessian":[1.0413E4,1.0368E4,4.5E1,1.0361E4,7E0,3.6E1,9E0,1.036E4,1E0,2E0,5E0,4E0,3.2E1,1.0351E4,9E0,3E0,1E0,6E0,2.6E1,1.0333E4,1.8E1,2E0,7E0,1E0,2E0,3E0,3E0,2.5E1,1E0,1.0308E4,2.5E1,9E0,9E0,2E0,5E0,2E0,1E0,2.4E1,1E0],"tree_param":{"num_deleted":"0","num_feature":"2721","num_nodes":"39","size_leaf_vector":"0"}},{"base_weights":[7.580268E-2,1.353852E-1,-5.1583603E1,-1.9600931E-1,1.0445019E1,-7.002273E1,8.12241E0,-2.4500364E-1,3.698459E1,3.6790257E0,2.883423E1,-8.560316E1,-2.52513E1,-2.8045082E-1,8.909001E1,6.293385E0,-2.504817E1,2.1590637E1,1.08533775E2,-1.498794E1,-3.4942314E1,2.0530832E1,-2.4389656E1,-3.053439E-1,3.7570084E1,5.1249256E1,1.4698361E0,8.8391075E0,-6.609172E1,1.7848639E1,4.814259E1,3.4707935E1,9.836666E0,1.222775E1,-2.9888742E0,-9.900322E-2,3.7220844E1,3.2870276E0,-1.4991534E1,-2.124189E1,-4.963448E0,3.575105E0,3.133187E1],"categories":[],"categories_nodes":[],"categories_segments":[],"categories_sizes":[],"default_left":[0,0,0,0,0,0,0,0,0,0,0,0,0,0,0,0,0,0,0,0,0,0,0,0,0,0,0,0,0,0,0,0,0,0,0,0,0,0,0,0,0,0,0],"id":21,"left_children":[1,3,5,7,9,11,-1,13,-1,15,17,19,21,23,25,27,-1,29,31,-1,-1,33,-1,35,-1,-1,-1,37,39,41,-1,-1,-1,-1,-1,-1,-1,-1,-1,-1,-1,-1,-1],"loss_changes":[3.2061256E4,3.554448E4,1.930053E4,6.1011387E4,4.0206418E4,4.8139883E3,0E0,3.1935576E4,0E0,5.476599E4,4.7882742E4,1.8834453E3,1.193304E4,3.1513723E4,2.6690248E4,4.333538E4,0E0,3.923195E4,2.5390625E0,0E0,0E0,2.2565928E3,0E0,3.0944227E4,0E0,0E0,0E0,2.8569244E4,6.972656E2,3.9845363E4,0E0,0E0,0E0,0E0,0E0,0E0,0E0,0E0,0E0,0E0,0E0,0E0,0E0],"parents":[2147483647,0,0,1,1,2,2,3,3,4,4,5,5,7,7,9,9,10,10,11,11,12,12,13,13,14,14,15,15,17,17,18,18,21,21,23,23,27,27,28,28,29,29],"right_children":[2,4,6,8,10,12,-1,14,-1,16,18,20,22,24,26,28,-1,30,32,-1,-1,34,-1,36,-1,-1,-1,38,40,42,-1,-1,-1,-1,-1,-1,-1,-1,-1,-1,-1,-1,-1],"split_conditions":[3.0751202E1,2.5890498E0,1.5621445E0,3.4E1,5.144081E-1,1.2923E0,8.12241E0,5.8906704E1,3.698459E1,3.606418E1,2.2245384E1,1.0294845E-1,5.45503E0,1.0203921E2,7.3665917E-1,8.965497E-1,-2.504817E1,6.759813E0,7.3665917E-1,-1.498794E1,-3.4942314E1,-9.355174E-2,-2.4389656E1,1.0203921E2,3.7570084E1,5.1249256E1,1.4698361E0,3.4E1,4.5624554E1,6.976242E-1,4.814259E1,3.4707935E1,9.836666E0,1.222775E1,-2.9888742E0,-9.900322E-2,3.7220844E1,3.2870276E0,-1.4991534E1,-2.124189E1,-4.963448E0,3.575105E0,3.133187E1],"split_indices":[1587,0,22,277,2719,14,0,1506,0,1889,527,14,14,2400,1,27,0,451,1,0,0,2719,0,2306,0,0,0,251,2580,14,0,0,0,0,0,0,0,0,0,0,0,0,0],"split_type":[0,0,0,0,0,0,0,0,0,0,0,0,0,0,0,0,0,0,0,0,0,0,0,0,0,0,0,0,0,0,0,0,0,0,0,0,0,0,0,0,0,0,0],"sum_hessian":[1.0413E4,1.0402E4,1.1E1,1.0079E4,3.23E2,9E0,2E0,1.0076E4,3E0,2.37E2,8.6E1,6E0,3E0,1.0073E4,3E0,2.31E2,6E0,8E1,6E0,4E0,2E0,2E0,1E0,1.0072E4,1E0,1E0,2E0,2.24E2,7E0,7.9E1,1E0,5E0,1E0,1E0,1E0,1.0071E4,1E0,2.17E2,7E0,6E0,1E0,7.5E1,4E0],"tree_param":{"num_deleted":"0","num_feature":"2721","num_nodes":"43","size_leaf_vector":"0"}},{"base_weights":[6.9584645E-2,2.2909561E-1,-1.9089233E1,2.0508966E-1,3.7224392E1,-1.37951565E1,-1.7383413E1,1.7604278E-1,3.0034828E1,-1.6950836E1,2.0183195E1,1.523822E-1,3.6670746E1,-1.9926968E1,-8.365355E0,9.101079E0,3.0162947E0,1.2877363E-1,3.6583084E1,-1.2322708E1,-2.3268387E1,-8.713611E0,-2.622737E-1,1.1214667E-1,-3.4184425E0,-4.1819687E0,1.22958E-1,-3.1653688E0,-7.2392683E0,-2.6762624E0,-7.4742997E-1],"categories":[],"categories_nodes":[],"categories_segments":[],"categories_sizes":[],"default_left":[0,0,0,0,0,0,0,0,0,0,0,0,0,0,0,0,0,0,0,0,0,0,0,0,0,0,0,0,0,0,0],"id":22,"left_children":[1,3,5,7,-1,9,-1,11,-1,13,15,17,-1,19,21,-1,-1,23,-1,25,27,29,-1,-1,-1,-1,-1,-1,-1,-1,-1],"loss_changes":[3.1829988E4,3.0684637E4,1.6891176E4,2.9955293E4,0E0,8.598432E3,0E0,2.9802922E4,0E0,1.6474629E3,4.149048E2,2.9671934E4,0E0,1.0345391E3,4.4558594E1,0E0,0E0,2.9157555E4,0E0,3.763506E2,1.2929297E2,2.2772217E0,0E0,0E0,0E0,0E0,0E0,0E0,0E0,0E0,0E0],"parents":[2147483647,0,0,1,1,2,2,3,3,5,5,7,7,9,9,10,10,11,11,13,13,14,14,17,17,19,19,20,20,21,21],"right_children":[2,4,6,8,-1,10,-1,12,-1,14,16,18,-1,20,22,-1,-1,24,-1,26,28,30,-1,-1,-1,-1,-1,-1,-1,-1,-1],"split_conditions":[1.1022971E1,1.0203921E2,8.356838E0,7.2149155E1,3.7224392E1,3.5740466E0,-1.7383413E1,1.0203921E2,3.0034828E1,1.7471827E1,1.0910153E-1,1.0203921E2,3.6670746E1,2.250477E0,1.0203921E2,9.101079E0,3.0162947E0,6.903541E0,3.6583084E1,7.2149155E1,4.2842755E0,5.8906704E1,-2.622737E-1,1.1214667E-1,-3.4184425E0,-4.1819687E0,1.22958E-1,-3.1653688E0,-7.2392683E0,-2.6762624E0,-7.4742997E-1],"split_indices":[207,325,2696,279,0,2715,0,2268,0,486,2719,1459,0,2716,1492,0,0,2691,0,2570,6,611,0,0,0,0,0,0,0,0,0],"split_type":[0,0,0,0,0,0,0,0,0,0,0,0,0,0,0,0,0,0,0,0,0,0,0,0,0,0,0,0,0,0,0],"sum_hessian":[1.0413E4,1.0328E4,8.5E1,1.0327E4,1E0,7.6E1,9E0,1.0325E4,2E0,7E1,6E0,1.0324E4,1E0,5.1E1,1.9E1,2E0,4E0,1.0323E4,1E0,1.7E1,3.4E1,1.8E1,1E0,1.0109E4,2.14E2,1.5E1,2E0,3E0,3.1E1,1.7E1,1E0],"tree_param":{"num_deleted":"0","num_feature":"2721","num_nodes":"31","size_leaf_vector":"0"}},{"base_weights":[5.9636E-2,3.129789E-2,2.951757E1,8.280142E-3,3.5950363E1,-1.9797735E-2,2.9227919E1,-2.2331029E-1,1.3185459E1,-1.6920118E-1,-5.562495E1,-4.156675E0,2.5351002E1,-1.4183077E-1,2.6853695E0,-2.014537E1,-6.464316E0,-1.8323538E0,1.8400417E1,-5.1848307E0,8.238395E0],"categories":[],"categories_nodes":[],"categories_segments":[],"categories_sizes":[],"default_left":[0,0,0,0,0,0,0,0,0,0,0,0,0,0,0,0,0,0,0,0,0],"id":23,"left_children":[1,3,-1,5,-1,7,-1,9,11,13,15,17,19,-1,-1,-1,-1,-1,-1,-1,-1],"loss_changes":[2.901606E4,2.8711145E4,0E0,2.8479074E4,0E0,2.7976463E4,0E0,3.0723355E4,3.3439656E4,2.8363734E4,2.4808848E3,8.808428E3,8.841871E3,0E0,0E0,0E0,0E0,0E0,0E0,0E0,0E0],"parents":[2147483647,0,0,1,1,3,3,5,5,7,7,8,8,9,9,10,10,11,11,12,12],"right_children":[2,4,-1,6,-1,8,-1,10,12,14,16,18,20,-1,-1,-1,-1,-1,-1,-1,-1],"split_conditions":[7.2149155E1,1.0203921E2,2.951757E1,7.2149155E1,3.5950363E1,2.3411655E0,2.9227919E1,3.0751202E1,1.7937382E0,3.377639E0,1.2923E0,1.0203921E2,-1.2081448E0,-1.4183077E-1,2.6853695E0,-2.014537E1,-6.464316E0,-1.8323538E0,1.8400417E1,-5.1848307E0,8.238395E0],"split_indices":[2439,1610,0,141,0,22,0,1587,57,25,14,316,2719,0,0,0,0,0,0,0,0],"split_type":[0,0,0,0,0,0,0,0,0,0,0,0,0,0,0,0,0,0,0,0,0],"sum_hessian":[1.0413E4,1.0411E4,2E0,1.041E4,1E0,1.0408E4,2E0,1.0251E4,1.57E2,1.0242E4,9E0,6.5E1,9.2E1,9.913E3,3.29E2,6E0,3E0,6.4E1,1E0,4E0,8.8E1],"tree_param":{"num_deleted":"0","num_feature":"2721","num_nodes":"21","size_leaf_vector":"0"}},{"base_weights":[5.041151E-2,2.769916E-2,3.548312E1,5.1497817E-3,3.5221775E1,-5.387029E-2,1.3153214E1,-7.616989E-2,3.477261E1,-9.845435E-2,3.4742302E1,-3.6214177E-2,3.469681E1],"categories":[],"categories_nodes":[],"categories_segments":[],"categories_sizes":[],"default_left":[0,0,0,0,0,0,0,0,0,0,0,0,0],"id":24,"left_children":[1,3,-1,5,-1,7,-1,9,-1,11,-1,-1,-1],"loss_changes":[2.7960451E4,2.7560582E4,0E0,2.6942111E4,0E0,2.68998E4,0E0,2.6863287E4,0E0,2.6803344E4,0E0,0E0,0E0],"parents":[2147483647,0,0,1,1,3,3,5,5,7,7,9,9],"right_children":[2,4,-1,6,-1,8,-1,10,-1,12,-1,-1,-1],"split_conditions":[1.0203921E2,1.0203921E2,3.548312E1,2.8284271E1,3.5221775E1,1.0203921E2,1.3153214E1,1.0203921E2,3.477261E1,1.0203921E2,3.4742302E1,-3.6214177E-2,3.469681E1],"split_indices":[1421,2517,0,492,0,2159,0,2487,0,2519,0,0,0],"split_type":[0,0,0,0,0,0,0,0,0,0,0,0,0],"sum_hessian":[1.0413E4,1.0412E4,1E0,1.0411E4,1E0,1.0398E4,1.3E1,1.0397E4,1E0,1.0396E4,1E0,1.0395E4,1E0],"tree_param":{"num_deleted":"0","num_feature":"2721","num_nodes":"13","size_leaf_vector":"0"}},{"base_weights":[5.3343706E-2,2.1982782E-2,8.166466E1,-5.164932E-3,2.8262451E1,2.8392702E1,6.4097447E0,-4.943426E-2,5.755667E1,-1.3504866E-1,2.9554821E1,3.678457E1,-6.0015016E0,-1.820653E-1,5.4027443E1,1.8302336E1,3.7417923E1,-1.4055457E1,3.684902E1,-6.1190616E-2,3.4023758E1,-4.557677E0,3.37325E1,-4.0537587E-1,8.78882E0,1.8766335E1,-2.1842744E0],"categories":[],"categories_nodes":[],"categories_segments":[],"categories_sizes":[],"default_left":[0,0,0,0,0,0,0,0,0,0,0,0,0,0,0,0,0,0,0,0,0,0,0,0,0,0,0],"id":25,"left_children":[1,3,5,7,-1,-1,-1,9,11,13,15,-1,17,19,21,23,-1,-1,25,-1,-1,-1,-1,-1,-1,-1,-1],"loss_changes":[2.6651863E4,2.6620785E4,1.1080449E3,2.6527307E4,0E0,0E0,0E0,2.6368389E4,3.3815895E4,2.6425072E4,2.984472E4,0E0,1.0478656E4,2.58124E4,3.809897E4,6.0894424E3,0E0,0E0,3.8585894E3,0E0,0E0,0E0,0E0,0E0,0E0,0E0,0E0],"parents":[2147483647,0,0,1,1,2,2,3,3,7,7,8,8,9,9,10,10,12,12,13,13,14,14,15,15,18,18],"right_children":[2,4,6,8,-1,-1,-1,10,12,14,16,-1,18,20,22,24,-1,-1,26,-1,-1,-1,-1,-1,-1,-1,-1],"split_conditions":[2.3294405E1,7.2149155E1,1.0910153E-1,3.8556084E1,2.8262451E1,2.8392702E1,6.4097447E0,1.892271E1,-2.96205E-1,3.606418E1,2.8284271E1,3.678457E1,7.3665917E-1,1.0203921E2,-6.1911404E-1,-9.0416485E-1,3.7417923E1,-1.4055457E1,7.2149155E1,-6.1190616E-2,3.4023758E1,-4.557677E0,3.37325E1,-4.0537587E-1,8.78882E0,1.8766335E1,-2.1842744E0],"split_indices":[19,362,2719,218,0,0,0,321,2719,2647,196,0,1,1730,22,2719,0,0,1028,0,0,0,0,0,0,0,0],"split_type":[0,0,0,0,0,0,0,0,0,0,0,0,0,0,0,0,0,0,0,0,0,0,0,0,0,0,0],"sum_hessian":[1.0413E4,1.041E4,3E0,1.0408E4,2E0,2E0,1E0,1.0401E4,7E0,1.0372E4,2.9E1,3E0,4E0,1.0364E4,8E0,2.7E1,2E0,2E0,2E0,1.0363E4,1E0,4E0,4E0,1E1,1.7E1,1E0,1E0],"tree_param":{"num_deleted":"0","num_feature":"2721","num_nodes":"27","size_leaf_vector":"0"}},{"base_weights":[5.7632245E-2,3.5966236E-2,3.384987E1,-4.7443993E-2,2.7971853E1,-7.5509787E-1,3.2891097E0,3.438974E1,-1.30175085E1,-1.3485467E0,4.1670985E0,3.0246797E0,7.123106E1,2.579518E1,1.8910912E1,-1.5332882E0,2.9890415E1,3.856162E0,4.358093E1,2.595778E0,4.1303043E1,2.815169E1,2.942261E0,2.8124344E1,-4.166343E0,-4.8113257E-1,1.743372E1,3.3839312E0,1.3711422E1,3.8532126E-1,6.206562E0,-2.7365768E-1,2.1078556E0,5.997488E0,3.0371689E1,3.6316454E-1,9.188975E0],"categories":[],"categories_nodes":[],"categories_segments":[],"categories_sizes":[],"default_left":[0,0,0,0,0,0,0,0,0,0,0,0,0,0,0,0,0,0,0,0,0,0,0,0,0,0,0,0,0,0,0,0,0,0,0,0,0],"id":26,"left_children":[1,3,-1,5,7,9,11,13,-1,15,17,19,21,23,-1,25,27,29,-1,31,33,-1,-1,35,-1,-1,-1,-1,-1,-1,-1,-1,-1,-1,-1,-1,-1],"loss_changes":[2.54414E4,2.426506E4,0E0,2.4518045E4,1.5690332E4,2.5030443E4,3.2428574E4,5.513918E3,0E0,4.417191E4,3.98916E4,2.9625162E4,8.80027E3,2.6088643E3,0E0,3.2053852E4,1.2728629E4,3.9842418E4,0E0,2.78572E4,2.3522453E4,0E0,0E0,1.513916E3,0E0,0E0,0E0,0E0,0E0,0E0,0E0,0E0,0E0,0E0,0E0,0E0,0E0],"parents":[2147483647,0,0,1,1,3,3,4,4,5,5,6,6,7,7,9,9,10,10,11,11,12,12,13,13,15,15,16,16,17,17,19,19,20,20,23,23],"right_children":[2,4,-1,6,8,10,12,14,-1,16,18,20,22,24,-1,26,28,30,-1,32,34,-1,-1,36,-1,-1,-1,-1,-1,-1,-1,-1,-1,-1,-1,-1,-1],"split_conditions":[3.9557716E1,6.459946E0,3.384987E1,3.1571108E-1,1.1022971E1,7.86976E-1,1.1224429E1,3.5740466E0,-1.30175085E1,9.956154E0,5.8906704E1,1.1156067E1,2.5890498E0,2.2245384E1,1.8910912E1,3.4E1,-2.5397435E-1,4.5001135E0,4.358093E1,1.7937382E0,2.4123127E0,2.815169E1,2.942261E0,3.777344E0,-4.166343E0,-4.8113257E-1,1.743372E1,3.3839312E0,1.3711422E1,3.8532126E-1,6.206562E0,-2.7365768E-1,2.1078556E0,5.997488E0,3.0371689E1,3.6316454E-1,9.188975E0],"split_indices":[26,23,0,22,2712,27,420,2715,0,175,1506,252,0,527,0,277,27,180,0,57,2717,0,0,102,0,0,0,0,0,0,0,0,0,0,0,0,0],"split_type":[0,0,0,0,0,0,0,0,0,0,0,0,0,0,0,0,0,0,0,0,0,0,0,0,0,0,0,0,0,0,0,0,0,0,0,0,0],"sum_hessian":[1.0413E4,1.0412E4,1E0,1.0382E4,3E1,8.566E3,1.816E3,2.8E1,2E0,7.645E3,9.21E2,1.81E3,6E0,2.3E1,5E0,7.601E3,4.4E1,9.2E2,1E0,1.791E3,1.9E1,4E0,2E0,2.2E1,1E0,7.593E3,8E0,2.1E1,2.3E1,7.99E2,1.21E2,1E3,7.91E2,1.5E1,4E0,2E0,2E1],"tree_param":{"num_deleted":"0","num_feature":"2721","num_nodes":"37","size_leaf_vector":"0"}},{"base_weights":[5.9417907E-2,1.9881185E-2,5.8836388E1,-1.2418603E-3,3.297711E1,2.0344227E1,7.455277E-1,-3.726755E-2,6.2455505E1,-7.604061E-2,5.7551586E1,2.9650204E1,1.9557755E1,-3.7539986E-1,7.3098207E0,6.933497E1,-1.9723023E0,-4.142853E-1,8.099293E0,-1.9014739E-1,2.5575268E0,1.6535313E0,2.5743477E1,2.7279324E1,5.2285495E0],"categories":[],"categories_nodes":[],"categories_segments":[],"categories_sizes":[],"default_left":[0,0,0,0,0,0,0,0,0,0,0,0,0,0,0,0,0,0,0,0,0,0,0,0,0],"id":27,"left_children":[1,3,5,7,-1,-1,-1,9,11,13,15,-1,17,19,21,23,-1,-1,-1,-1,-1,-1,-1,-1,-1],"loss_changes":[2.419939E4,2.4162344E4,3.3728125E3,2.3418572E4,0E0,0E0,0E0,2.3230963E4,7.430365E3,2.298857E4,5.745174E3,0E0,6.6040857E2,2.298807E4,5.669281E4,5.141076E3,0E0,0E0,0E0,0E0,0E0,0E0,0E0,0E0,0E0],"parents":[2147483647,0,0,1,1,2,2,3,3,7,7,8,8,9,9,10,10,12,12,13,13,14,14,15,15],"right_children":[2,4,6,8,-1,-1,-1,10,12,14,16,-1,18,20,22,24,-1,-1,-1,-1,-1,-1,-1,-1,-1],"split_conditions":[4.1647327E1,1.0203921E2,4.2842755E0,4.5624554E1,3.297711E1,2.0344227E1,7.455277E-1,4.1647327E1,7.696396E0,1.2743845E0,1.0203921E2,2.9650204E1,-7.0151156E-1,2.4228475E0,1.8300362E1,7.2149155E1,-1.9723023E0,-4.142853E-1,8.099293E0,-1.9014739E-1,2.5575268E0,1.6535313E0,2.5743477E1,2.7279324E1,5.2285495E0],"split_indices":[2432,2282,6,2022,0,0,0,208,19,2720,1131,0,2719,23,382,2254,0,0,0,0,0,0,0,0,0],"split_type":[0,0,0,0,0,0,0,0,0,0,0,0,0,0,0,0,0,0,0,0,0,0,0,0,0],"sum_hessian":[1.0413E4,1.0407E4,6E0,1.0406E4,1E0,5E0,1E0,1.0401E4,5E0,1.0395E4,6E0,2E0,3E0,9.991E3,4.04E2,5E0,1E0,1E0,2E0,9.71E3,2.81E2,3.96E2,8E0,3E0,2E0],"tree_param":{"num_deleted":"0","num_feature":"2721","num_nodes":"25","size_leaf_vector":"0"}},{"base_weights":[5.6159277E-2,8.8616796E-2,-6.753164E1,6.809543E-2,3.2054337E1,-2.683373E1,-6.932089E0,4.7747556E-2,3.1777315E1,2.7408483E-2,3.1757475E1,-1.9941494E-2,4.4779255E1,-1.2005862E-2,3.1306715E1,1.8999356E0,2.68944E1],"categories":[],"categories_nodes":[],"categories_segments":[],"categories_sizes":[],"default_left":[0,0,0,0,0,0,0,0,0,0,0,0,0,0,0,0,0],"id":28,"left_children":[1,3,5,7,-1,-1,-1,9,-1,11,-1,13,15,-1,-1,-1,-1],"loss_changes":[2.2851516E4,2.279941E4,2.8008223E3,2.241541E4,0E0,0E0,0E0,2.2396025E4,0E0,2.2053314E4,0E0,2.1792746E4,1.8407574E4,0E0,0E0,0E0,0E0],"parents":[2147483647,0,0,1,1,2,2,3,3,7,7,9,9,11,11,12,12],"right_children":[2,4,6,8,-1,-1,-1,10,-1,12,-1,14,16,-1,-1,-1,-1],"split_conditions":[5.1012253E1,1.0203921E2,1.2334194E1,1.0203921E2,3.2054337E1,-2.683373E1,-6.932089E0,1.0203921E2,3.1777315E1,3.225368E1,3.1757475E1,1.0203921E2,2.8812754E0,-1.2005862E-2,3.1306715E1,1.8999356E0,2.68944E1],"split_indices":[1918,2400,2686,325,0,0,0,2306,0,89,0,2268,21,0,0,0,0],"split_type":[0,0,0,0,0,0,0,0,0,0,0,0,0,0,0,0,0],"sum_hessian":[1.0413E4,1.0409E4,4E0,1.0408E4,1E0,2E0,2E0,1.0407E4,1E0,1.0406E4,1E0,1.0396E4,1E1,1.0395E4,1E0,6E0,4E0],"tree_param":{"num_deleted":"0","num_feature":"2721","num_nodes":"17","size_leaf_vector":"0"}},{"base_weights":[5.10184E-2,3.1026496E-2,3.1234003E1,8.712941E-2,-1.0929237E1,3.4886856E-2,3.8833683E1,1.5196514E-2,3.067491E1,2.73775E1,2.8164614E1,-7.377582E-2,2.2461895E1,-1.9263431E0,9.218745E0,-5.0602283E-2,6.35243E0,1.3160685E-1,9.156734E0],"categories":[],"categories_nodes":[],"categories_segments":[],"categories_sizes":[],"default_left":[0,0,0,0,0,0,0,0,0,0,0,0,0,0,0,0,0,0,0],"id":29,"left_children":[1,3,-1,5,-1,7,9,11,-1,13,-1,15,17,-1,-1,-1,-1,-1,-1],"loss_changes":[2.1662094E4,2.1304156E4,0E0,2.1046473E4,0E0,2.089976E4,6.2587656E3,2.073991E4,0E0,1.6699717E3,0E0,2.086177E4,7.2648984E3,0E0,0E0,0E0,0E0,0E0,0E0],"parents":[2147483647,0,0,1,1,3,3,5,5,6,6,7,7,9,9,11,11,12,12],"right_children":[2,4,-1,6,-1,8,10,12,-1,14,-1,16,18,-1,-1,-1,-1,-1,-1],"split_conditions":[1.0203921E2,2.6328691E1,3.1234003E1,1.4892273E1,-1.0929237E1,1.0203921E2,1.9987495E1,1.4767083E1,3.067491E1,2.2776718E-1,2.8164614E1,1.5178933E1,2.7773743E0,-1.9263431E0,9.218745E0,-5.0602283E-2,6.35243E0,1.3160685E-1,9.156734E0],"split_indices":[1459,403,0,21,0,1610,264,20,0,0,0,1894,35,0,0,0,0,0,0],"split_type":[0,0,0,0,0,0,0,0,0,0,0,0,0,0,0,0,0,0,0],"sum_hessian":[1.0413E4,1.0412E4,1E0,1.0397E4,1.5E1,1.0384E4,1.3E1,1.0383E4,1E0,1.2E1,1E0,1.0343E4,4E1,1E0,1.1E1,1.0298E4,4.5E1,1.1E1,2.9E1],"tree_param":{"num_deleted":"0","num_feature":"2721","num_nodes":"19","size_leaf_vector":"0"}},{"base_weights":[4.5509562E-2,2.6211176E-2,3.0149944E1,1.6789103E-1,-1.4440824E1,4.3031234E-2,2.1867369E1,-5.1630044E0,-8.538127E0,-3.2971025E-1,5.957779E0,-7.077715E0,3.3751755E1,-6.9881344E0,1.5925491E1,-3.7655252E-1,4.4854534E1,1.6619928E1,3.383255E0,-1.2140224E1,7.6795006E-1,2.2949278E1,6.602475E1,-7.534985E0,1.8287934E0,-1.1915744E-1,2.9781227E1,9.618632E0,2.3997955E1,1.7132218E0,6.839516E0,-3.430183E0,1.5493238E0,-3.9732847E0,-1.6494885E-1,1.7303513E0,-1.015665E0,3.6681051E0,2.4164562E1,2.5536407E1,-2.0723329E0,-1.003667E0,-2.980673E0],"categories":[],"categories_nodes":[],"categories_segments":[],"categories_sizes":[],"default_left":[0,0,0,0,0,0,0,0,0,0,0,0,0,0,0,0,0,0,0,0,0,0,0,0,0,0,0,0,0,0,0,0,0,0,0,0,0,0,0,0,0,0,0],"id":30,"left_children":[1,3,-1,5,7,9,11,13,-1,15,17,19,21,23,-1,25,27,29,31,33,35,37,39,41,-1,-1,-1,-1,-1,-1,-1,-1,-1,-1,-1,-1,-1,-1,-1,-1,-1,-1,-1],"loss_changes":[2.018601E4,2.1345818E4,0E0,2.794102E4,1.299026E4,2.2610873E4,2.053456E4,6.9621934E3,0E0,2.0437201E4,1.6633346E4,7.242608E2,1.312716E4,4.823916E2,0E0,1.9863137E4,1.9303359E3,7.8232344E3,1.3017408E4,1.33479E2,1.8566356E2,1.9395746E4,1.4515633E4,5.601289E2,0E0,0E0,0E0,0E0,0E0,0E0,0E0,0E0,0E0,0E0,0E0,0E0,0E0,0E0,0E0,0E0,0E0,0E0,0E0],"parents":[2147483647,0,0,1,1,3,3,4,4,5,5,6,6,7,7,9,9,10,10,11,11,12,12,13,13,15,15,16,16,17,17,18,18,19,19,20,20,21,21,22,22,23,23],"right_children":[2,4,-1,6,8,10,12,14,-1,16,18,20,22,24,-1,26,28,30,32,34,36,38,40,42,-1,-1,-1,-1,-1,-1,-1,-1,-1,-1,-1,-1,-1,-1,-1,-1,-1,-1,-1],"split_conditions":[1.0203921E2,1.0104405E1,3.0149944E1,3.9339833E0,2.250477E0,3.8317397E0,-4.9465084E-1,4.186702E0,-8.538127E0,3.4E1,1.2617955E0,-1.3791686E0,-2.904989E-1,5.8906704E1,1.5925491E1,1.0203921E2,-2.5397435E-1,-2.5397435E-1,1.8827132E0,1.0203921E2,6.595453E0,7.170614E-1,2.250477E0,-2.1335154E0,1.8287934E0,-1.1915744E-1,2.9781227E1,9.618632E0,2.3997955E1,1.7132218E0,6.839516E0,-3.430183E0,1.5493238E0,-3.9732847E0,-1.6494885E-1,1.7303513E0,-1.015665E0,3.6681051E0,2.4164562E1,2.5536407E1,-2.0723329E0,-1.003667E0,-2.980673E0],"split_indices":[1421,195,0,16,2716,12,2720,266,0,143,27,2720,27,1422,0,2517,27,27,27,2097,2,2719,2716,0,0,0,0,0,0,0,0,0,0,0,0,0,0,0,0,0,0,0,0],"split_type":[0,0,0,0,0,0,0,0,0,0,0,0,0,0,0,0,0,0,0,0,0,0,0,0,0,0,0,0,0,0,0,0,0,0,0,0,0,0,0,0,0,0,0],"sum_hessian":[1.0413E4,1.0412E4,1E0,1.0312E4,1E2,1.0254E4,5.8E1,6.1E1,3.9E1,9.647E3,6.07E2,1.7E1,4.1E1,6E1,1E0,9.638E3,9E0,1.17E2,4.9E2,1E1,7E0,3.2E1,9E0,5.8E1,2E0,9.637E3,1E0,8E0,1E0,4.3E1,7.4E1,5.2E1,4.38E2,9E0,1E0,3E0,4E0,2.8E1,4E0,7E0,2E0,2.2E1,3.6E1],"tree_param":{"num_deleted":"0","num_feature":"2721","num_nodes":"43","size_leaf_vector":"0"}},{"base_weights":[4.6568464E-2,2.7562177E-2,2.9693857E1,4.278342E-3,2.4246315E1,-1.4720986E-2,2.9668093E1,-3.3699196E-2,2.9629423E1,-5.238555E-2,2.916808E1,-4.7692463E-2,5.0732646E0],"categories":[],"categories_nodes":[],"categories_segments":[],"categories_sizes":[],"default_left":[0,0,0,0,0,0,0,0,0,0,0,0,0],"id":31,"left_children":[1,3,-1,5,-1,7,-1,9,-1,11,-1,-1,-1],"loss_changes":[1.9579219E4,1.9588406E4,0E0,1.9561969E4,0E0,1.9518512E4,0E0,1.8922893E4,0E0,1.8821426E4,0E0,0E0,0E0],"parents":[2147483647,0,0,1,1,3,3,5,5,7,7,9,9],"right_children":[2,4,-1,6,-1,8,-1,10,-1,12,-1,-1,-1],"split_conditions":[1.0203921E2,7.2149155E1,2.9693857E1,1.0203921E2,2.4246315E1,1.0203921E2,2.9668093E1,1.0203921E2,2.9629423E1,1.2716254E1,2.916808E1,-4.7692463E-2,5.0732646E0],"split_indices":[2159,279,0,2487,0,2519,0,2386,0,2228,0,0,0],"split_type":[0,0,0,0,0,0,0,0,0,0,0,0,0],"sum_hessian":[1.0413E4,1.0412E4,1E0,1.041E4,2E0,1.0409E4,1E0,1.0408E4,1E0,1.0407E4,1E0,1.0343E4,6.4E1],"tree_param":{"num_deleted":"0","num_feature":"2721","num_nodes":"13","size_leaf_vector":"0"}},{"base_weights":[4.6755165E-2,2.8157711E-2,2.9055305E1,-2.91314E-2,3.136985E1,-4.767904E-2,2.891326E1,7.033614E0,1.577073E1,-6.622988E-2,2.8912676E1,2.343697E0,3.7845613E-3,-8.893724E-2,2.358197E1,-3.223433E-2,2.8835321E1],"categories":[],"categories_nodes":[],"categories_segments":[],"categories_sizes":[],"default_left":[0,0,0,0,0,0,0,0,0,0,0,0,0,0,0,0,0],"id":32,"left_children":[1,3,-1,5,7,9,-1,11,-1,13,-1,-1,-1,15,-1,-1,-1],"loss_changes":[1.8745729E4,1.8697848E4,0E0,1.859206E4,9.432539E3,1.8598463E4,0E0,5.4574615E1,0E0,1.8573582E4,0E0,0E0,0E0,1.8515E4,0E0,0E0,0E0],"parents":[2147483647,0,0,1,1,3,3,4,4,5,5,7,7,9,9,13,13],"right_children":[2,4,-1,6,8,10,-1,12,-1,14,-1,-1,-1,16,-1,-1,-1],"split_conditions":[1.0203921E2,2.403123E1,2.9055305E1,1.0203921E2,-4.0098816E-1,1.0203921E2,2.891326E1,2.5890498E0,1.577073E1,7.2149155E1,2.8912676E1,2.343697E0,3.7845613E-3,3.9557716E1,2.358197E1,-3.223433E-2,2.8835321E1],"split_indices":[1730,465,0,1677,22,1446,0,0,0,141,0,0,0,26,0,0,0],"split_type":[0,0,0,0,0,0,0,0,0,0,0,0,0,0,0,0,0],"sum_hessian":[1.0413E4,1.0412E4,1E0,1.0394E4,1.8E1,1.0393E4,1E0,9E0,9E0,1.0392E4,1E0,8E0,1E0,1.039E4,2E0,1.0389E4,1E0],"tree_param":{"num_deleted":"0","num_feature":"2721","num_nodes":"17","size_leaf_vector":"0"}},{"base_weights":[4.784157E-2,1.13142785E-2,4.7559303E1,-1.7538415E-2,6.0039963E1,-6.5193224E0,2.2283384E1,-1.2125896E-1,1.6229137E1,8.480088E0,2.80698E1,-1.433379E-1,2.2796547E1,6.5392203E0,1.059352E1,-1.07324675E-1,-4.6623E1,-3.4469995E0,9.4909115E0,-3.979796E-2,1.9596695E1,-1.5646784E1,-1.1838601E0,-2.9538846E0,5.5055026E-2,1.9697661E0,7.718364E0],"categories":[],"categories_nodes":[],"categories_segments":[],"categories_sizes":[],"default_left":[0,0,0,0,0,0,0,0,0,0,0,0,0,0,0,0,0,0,0,0,0,0,0,0,0,0,0],"id":33,"left_children":[1,3,5,7,9,-1,-1,11,13,-1,-1,15,-1,17,-1,19,21,23,25,-1,-1,-1,-1,-1,-1,-1,-1],"loss_changes":[1.8072596E4,1.8025854E4,1.64249E4,1.7532209E4,2.681289E3,0E0,0E0,1.7383104E4,1.197307E4,0E0,0E0,1.7296248E4,0E0,1.359146E3,0E0,1.7130766E4,1.683209E3,2.5736667E2,1.4933472E3,0E0,0E0,0E0,0E0,0E0,0E0,0E0,0E0],"parents":[2147483647,0,0,1,1,2,2,3,3,4,4,7,7,8,8,11,11,13,13,15,15,16,16,17,17,18,18],"right_children":[2,4,6,8,10,-1,-1,12,14,-1,-1,16,-1,18,-1,20,22,24,26,-1,-1,-1,-1,-1,-1,-1,-1],"split_conditions":[3.8556084E1,5.1012253E1,8.0685973E-1,1.2617448E1,2.5890498E0,-6.5193224E0,2.2283384E1,7.2149155E1,1.7548772E0,8.480088E0,2.80698E1,3.8556084E1,2.2796547E1,-8.961375E-2,1.059352E1,5.8906704E1,6.595453E0,-1.9918747E-1,3.2771285E0,-3.979796E-2,1.9596695E1,-1.5646784E1,-1.1838601E0,-2.9538846E0,5.5055026E-2,1.9697661E0,7.718364E0],"split_indices":[338,336,9,274,0,0,0,362,27,0,0,142,0,27,0,1506,2,27,2684,0,0,0,0,0,0,0,0],"split_type":[0,0,0,0,0,0,0,0,0,0,0,0,0,0,0,0,0,0,0,0,0,0,0,0,0,0,0],"sum_hessian":[1.0413E4,1.0406E4,7E0,1.0402E4,4E0,2E0,5E0,1.0337E4,6.5E1,3E0,1E0,1.0335E4,2E0,4.4E1,2.1E1,1.0328E4,7E0,1E1,3.4E1,1.0325E4,3E0,6E0,1E0,3E0,7E0,3E1,4E0],"tree_param":{"num_deleted":"0","num_feature":"2721","num_nodes":"27","size_leaf_vector":"0"}},{"base_weights":[4.2632274E-2,-7.1199415E-3,3.23758E1,-2.461733E-2,2.728961E1,5.8703705E1,5.375907E0,-7.4040234E-2,3.20493E1,6.86435E1,-1.6312329E0,2.6354025E1,-8.230574E0,-6.5372473E-1,2.6701393E0,4.1086178E1,1.5925397E1,2.6284388E1,4.2431383E0,1.8598511E0,1.0464423E1,-7.311506E-1,2.4826677E1,2.4667847E0,5.4725117E1,-1.2070353E1,5.9930744E1,-2.7456594E-1,3.0282407E0,4.302559E0,3.0128891E1,6.826881E-1,1.5372578E1,2.1513275E1,2.452124E0,-1.183664E1,3.8286905E0,-5.6909795E0,3.123707E1],"categories":[],"categories_nodes":[],"categories_segments":[],"categories_sizes":[],"default_left":[0,0,0,0,0,0,0,0,0,0,0,0,0,0,0,0,0,0,0,0,0,0,0,0,0,0,0,0,0,0,0,0,0,0,0,0,0,0,0],"id":34,"left_children":[1,3,5,7,-1,9,11,13,15,17,-1,19,-1,21,23,-1,25,-1,-1,-1,-1,27,29,31,33,35,37,-1,-1,-1,-1,-1,-1,-1,-1,-1,-1,-1,-1],"loss_changes":[1.6752678E4,1.6555168E4,1.1058023E4,1.648514E4,0E0,5.4736504E3,6.917875E3,1.6518588E4,2.4882502E4,5.998246E3,0E0,8.149448E2,0E0,1.693134E4,1.9035559E4,0E0,1.9202826E4,0E0,0E0,0E0,0E0,1.7041988E4,1.916941E4,1.6712754E4,4.948838E3,7.3039927E3,2.2896275E4,0E0,0E0,0E0,0E0,0E0,0E0,0E0,0E0,0E0,0E0,0E0,0E0],"parents":[2147483647,0,0,1,1,2,2,3,3,5,5,6,6,7,7,8,8,9,9,11,11,13,13,14,14,16,16,21,21,22,22,23,23,24,24,25,25,26,26],"right_children":[2,4,6,8,-1,10,12,14,16,18,-1,20,-1,22,24,-1,26,-1,-1,-1,-1,28,30,32,34,36,38,-1,-1,-1,-1,-1,-1,-1,-1,-1,-1,-1,-1],"split_conditions":[2.6328691E1,1.0203921E2,8.0685973E-1,2.6328691E1,2.728961E1,1.0203921E2,7.689459E-1,3.1571108E-1,-1.5055282E0,7.2149155E1,-1.6312329E0,3.587599E0,-8.230574E0,1.892271E1,1.1224429E1,4.1086178E1,-2.7223662E-1,2.6284388E1,4.2431383E0,1.8598511E0,1.0464423E1,6.976242E-1,2.8284271E1,2.2245384E1,2.5890498E0,4.2842755E0,-9.0416485E-1,-2.7456594E-1,3.0282407E0,4.302559E0,3.0128891E1,6.826881E-1,1.5372578E1,2.1513275E1,2.452124E0,-1.183664E1,3.8286905E0,-5.6909795E0,3.123707E1],"split_indices":[364,2400,9,2433,0,1131,2720,22,2720,2254,0,22,0,321,420,0,27,0,0,0,0,14,196,527,0,6,2719,0,0,0,0,0,0,0,0,0,0,0,0],"split_type":[0,0,0,0,0,0,0,0,0,0,0,0,0,0,0,0,0,0,0,0,0,0,0,0,0,0,0,0,0,0,0,0,0,0,0,0,0,0,0],"sum_hessian":[1.0413E4,1.0398E4,1.5E1,1.0397E4,1E0,7E0,8E0,1.0382E4,1.5E1,6E0,1E0,5E0,3E0,8.572E3,1.81E3,1E0,1.4E1,4E0,2E0,2E0,3E0,8.547E3,2.5E1,1.804E3,6E0,9E0,5E0,8.405E3,1.42E2,2.3E1,2E0,1.798E3,6E0,4E0,2E0,4E0,5E0,2E0,3E0],"tree_param":{"num_deleted":"0","num_feature":"2721","num_nodes":"39","size_leaf_vector":"0"}},{"base_weights":[4.867389E-2,1.2239429E-2,4.2169598E1,-4.8635453E-3,2.6695305E1,-1.0548246E1,2.5936058E1,1.2204594E-2,-2.663727E1,-1.6016222E0,-4.707941E0,-4.857208E-3,2.6625921E1,-2.1905607E-2,2.6599888E1,-1.16839465E-2,2.6583042E1],"categories":[],"categories_nodes":[],"categories_segments":[],"categories_sizes":[],"default_left":[0,0,0,0,0,0,0,0,0,0,0,0,0,0,0,0,0],"id":35,"left_children":[1,3,5,7,-1,9,-1,11,-1,-1,-1,13,-1,15,-1,-1,-1],"loss_changes":[1.5981362E4,1.5835114E4,2.192291E4,1.5768949E4,0E0,5.023004E1,0E0,1.5752909E4,0E0,0E0,0E0,1.5728168E4,0E0,1.5714298E4,0E0,0E0,0E0],"parents":[2147483647,0,0,1,1,2,2,3,3,5,5,7,7,11,11,13,13],"right_children":[2,4,6,8,-1,10,-1,12,-1,-1,-1,14,-1,16,-1,-1,-1],"split_conditions":[3.606418E1,1.0203921E2,-6.1911404E-1,1.0203921E2,2.6695305E1,3.8556084E1,2.5936058E1,1.0203921E2,-2.663727E1,-1.6016222E0,-4.707941E0,1.0203921E2,2.6625921E1,1.0203921E2,2.6599888E1,-1.16839465E-2,2.6583042E1],"split_indices":[2647,2268,22,1878,0,1883,0,1459,0,0,0,325,0,2306,0,0,0],"split_type":[0,0,0,0,0,0,0,0,0,0,0,0,0,0,0,0,0],"sum_hessian":[1.0413E4,1.0405E4,8E0,1.0404E4,1E0,4E0,4E0,1.0403E4,1E0,3E0,1E0,1.0402E4,1E0,1.0401E4,1E0,1.04E4,1E0],"tree_param":{"num_deleted":"0","num_feature":"2721","num_nodes":"17","size_leaf_vector":"0"}},{"base_weights":[4.3624815E-2,1.4576065E-2,5.043109E1,5.1708203E-2,-1.4480494E1,2.3837688E1,1.6052414E1,-8.822413E-3,2.420842E1,-2.639923E-1,6.5969605E0,-2.5626414E-2,2.6152424E1,-7.0047545E0,6.120752E1,-4.2135455E-2,2.568835E1,-4.387879E0,-8.958282E-2,2.9005499E1,2.205433E1,-3.0725377E-2,6.919641E0,5.701341E-1,2.1446646E1],"categories":[],"categories_nodes":[],"categories_segments":[],"categories_sizes":[],"default_left":[0,0,0,0,0,0,0,0,0,0,0,0,0,0,0,0,0,0,0,0,0,0,0,0,0],"id":36,"left_children":[1,3,5,7,-1,-1,9,11,13,-1,-1,15,-1,17,19,21,-1,-1,-1,-1,23,-1,-1,-1,-1],"loss_changes":[1.5242162E4,1.8664238E4,4.712133E3,1.5210233E4,0E0,0E0,4.214917E2,1.5204879E4,3.045509E4,0E0,0E0,1.4675856E4,0E0,7.6229645E2,1.4536352E4,1.4454565E4,0E0,0E0,0E0,0E0,6.8382173E3,0E0,0E0,0E0,0E0],"parents":[2147483647,0,0,1,1,2,2,3,3,6,6,7,7,8,8,11,11,13,13,14,14,15,15,20,20],"right_children":[2,4,6,8,-1,-1,10,12,14,-1,-1,16,-1,18,20,22,-1,-1,-1,-1,24,-1,-1,-1,-1],"split_conditions":[4.5624554E1,3.0751202E1,7.696396E0,2.0384308E1,-1.4480494E1,2.3837688E1,-7.0151156E-1,1.0203921E2,-6.001849E-1,-2.639923E-1,6.5969605E0,1.0203921E2,2.6152424E1,6.595453E0,7.7748955E-3,1.9987495E1,2.568835E1,-4.387879E0,-8.958282E-2,2.9005499E1,-8.961375E-2,-3.0725377E-2,6.919641E0,5.701341E-1,2.1446646E1],"split_indices":[2022,419,19,200,0,0,2719,1610,2719,0,0,1421,0,2,2719,2381,0,0,0,0,27,0,0,0,0],"split_type":[0,0,0,0,0,0,0,0,0,0,0,0,0,0,0,0,0,0,0,0,0,0,0,0,0],"sum_hessian":[1.0413E4,1.0408E4,5E0,1.0401E4,7E0,2E0,3E0,1.0376E4,2.5E1,1E0,2E0,1.0375E4,1E0,1.4E1,1.1E1,1.0374E4,1E0,6E0,8E0,5E0,6E0,1.0348E4,2.6E1,5E0,1E0],"tree_param":{"num_deleted":"0","num_feature":"2721","num_nodes":"25","size_leaf_vector":"0"}},{"base_weights":[4.2153034E-2,2.2188792E-2,2.07952E1,4.7917984E-2,-5.354014E1,-3.8794E-2,1.6674856E1,-2.134569E1,-5.424379E0,2.3147494E-3,-1.8242882E1,1.0947769E1,3.3115826E1,-5.5039186E-2,2.6927275E1,1.4379315E1,-2.4609165E1,-1.1395952E-2,-2.6423714E1,1.4786755E1,-2.5807077E1,3.296641E0,2.7585741E1],"categories":[],"categories_nodes":[],"categories_segments":[],"categories_sizes":[],"default_left":[0,0,0,0,0,0,0,0,0,0,0,0,0,0,0,0,0,0,0,0,0,0,0],"id":37,"left_children":[1,3,-1,5,7,9,11,-1,-1,13,-1,15,-1,17,19,21,-1,-1,-1,-1,-1,-1,-1],"loss_changes":[1.4401299E4,1.4351504E4,0E0,1.5006431E4,1.8360127E3,2.5869123E4,2.777291E4,0E0,0E0,1.598295E4,0E0,1.7770633E4,0E0,1.5499449E4,5.9807547E4,1.2403203E4,0E0,0E0,0E0,0E0,0E0,0E0,0E0],"parents":[2147483647,0,0,1,1,3,3,4,4,5,5,6,6,9,9,11,11,13,13,14,14,15,15],"right_children":[2,4,-1,6,8,10,12,-1,-1,14,-1,16,-1,18,20,22,-1,-1,-1,-1,-1,-1,-1],"split_conditions":[7.2149155E1,5.1012253E1,2.07952E1,6.136595E0,1.2334194E1,3.606418E1,3.606418E1,-2.134569E1,-5.424379E0,2.1732882E1,-1.8242882E1,1.0203921E2,3.3115826E1,7.2149155E1,4.1308147E-1,7.2149155E1,-2.4609165E1,-1.1395952E-2,-2.6423714E1,1.4786755E1,-2.5807077E1,3.296641E0,2.7585741E1],"split_indices":[2439,1918,0,19,2686,1889,1889,0,0,242,0,1486,0,2269,2719,2269,0,0,0,0,0,0,0],"split_type":[0,0,0,0,0,0,0,0,0,0,0,0,0,0,0,0,0,0,0,0,0,0,0],"sum_hessian":[1.0413E4,1.0411E4,2E0,1.0407E4,4E0,1.0354E4,5.3E1,2E0,2E0,1.0348E4,6E0,5.1E1,2E0,1.0327E4,2.1E1,5E1,1E0,1.0326E4,1E0,1.8E1,3E0,4.9E1,1E0],"tree_param":{"num_deleted":"0","num_feature":"2721","num_nodes":"23","size_leaf_vector":"0"}},{"base_weights":[2.7367722E-2,-6.344796E-2,1.5191681E1,-7.9747126E-2,2.529983E1,4.991646E0,2.4004086E1,-9.603535E-2,2.5277943E1,8.28435E0,-7.0107193E0,1.131313E1,1.8863514E1,-2.0400797E-1,1.2644596E1,4.886363E0,1.446953E1,-3.761185E0,1.3611381E0,6.2950325E0,4.0119863E0,-2.4464856E-1,3.454038E1,-6.748051E0,3.4566788E1,1.44057E0,3.8604457E0,5.8012233E0,2.3043962E0,-1.0573182E-1,3.8429823E0,2.7746983E1,-1.7986931E0,-1.4953147E0,-6.1697984E0,4.9118743E0,1.4428082E1,9.2145795E-1,-8.990891E-1],"categories":[],"categories_nodes":[],"categories_segments":[],"categories_sizes":[],"default_left":[0,0,0,0,0,0,0,0,0,0,0,0,0,0,0,0,0,0,0,0,0,0,0,0,0,0,0,0,0,0,0,0,0,0,0,0,0,0,0],"id":38,"left_children":[1,3,5,7,-1,9,11,13,-1,15,17,-1,19,21,23,25,27,-1,-1,-1,-1,29,31,33,35,37,-1,-1,-1,-1,-1,-1,-1,-1,-1,-1,-1,-1,-1],"loss_changes":[1.4342682E4,1.42481875E4,5.453164E3,1.4229059E4,0E0,1.2436868E3,1.6137773E3,1.4241823E4,0E0,4.337085E2,5.036227E2,0E0,2.1993164E1,1.4502962E4,3.7219504E4,4.4902365E2,1.1581677E2,0E0,0E0,0E0,0E0,1.443359E4,2.874307E4,1.042894E3,9.302883E3,1.03291756E2,0E0,0E0,0E0,0E0,0E0,0E0,0E0,0E0,0E0,0E0,0E0,0E0,0E0],"parents":[2147483647,0,0,1,1,2,2,3,3,5,5,6,6,7,7,9,9,10,10,12,12,13,13,14,14,15,15,16,16,21,21,22,22,23,23,24,24,25,25],"right_children":[2,4,6,8,-1,10,12,14,-1,16,18,-1,20,22,24,26,28,-1,-1,-1,-1,30,32,34,36,38,-1,-1,-1,-1,-1,-1,-1,-1,-1,-1,-1,-1,-1],"split_conditions":[1.3027084E1,1.0203921E2,1.7548772E0,1.0203921E2,2.529983E1,2.250477E0,-1.1068181E0,1.0958166E1,2.5277943E1,2.1042816E-1,7.86976E-1,1.131313E1,-8.737299E-1,2.8284271E1,6.425862E-1,8.965497E-1,1.53511915E1,-3.761185E0,1.3611381E0,6.2950325E0,4.0119863E0,1.1156067E1,-8.737299E-1,2.250477E0,-4.0098816E-1,-1.1068181E0,3.8604457E0,5.8012233E0,2.3043962E0,-1.0573182E-1,3.8429823E0,2.7746983E1,-1.7986931E0,-1.4953147E0,-6.1697984E0,4.9118743E0,1.4428082E1,9.2145795E-1,-8.990891E-1],"split_indices":[2665,2159,27,2487,0,2716,2719,2698,0,2719,27,0,2720,196,2720,27,331,0,0,0,0,252,2720,2716,22,2719,0,0,0,0,0,0,0,0,0,0,0,0,0],"split_type":[0,0,0,0,0,0,0,0,0,0,0,0,0,0,0,0,0,0,0,0,0,0,0,0,0,0,0,0,0,0,0,0,0,0,0,0,0,0,0],"sum_hessian":[1.0413E4,1.0352E4,6.1E1,1.0351E4,1E0,2.9E1,3.2E1,1.035E4,1E0,2.3E1,6E0,7E0,2.5E1,1.0264E4,8.6E1,1.6E1,7E0,4E0,2E0,1.6E1,9E0,1.0253E4,1.1E1,4.6E1,4E1,1.2E1,4E0,3E0,4E0,1.017E4,8.3E1,4E0,7E0,4.2E1,4E0,1.8E1,2.2E1,9E0,3E0],"tree_param":{"num_deleted":"0","num_feature":"2721","num_nodes":"39","size_leaf_vector":"0"}},{"base_weights":[3.098226E-2,1.4812554E-2,2.526092E1,-1.5331842E-2,4.48288E1,-5.3071197E-2,3.5656612E1,1.5442067E1,7.4403995E-1,-1.8957596E-2,-1.1827692E1,1.7327303E1,-4.2532116E1,2.501595E-2,-3.0432732E1,-2.1859938E1,2.720485E0,2.7048748E-3,2.4900888E1,-4.855787E0,-1.670673E1],"categories":[],"categories_nodes":[],"categories_segments":[],"categories_sizes":[],"default_left":[0,0,0,0,0,0,0,0,0,0,0,0,0,0,0,0,0,0,0,0,0],"id":39,"left_children":[1,3,-1,5,7,9,11,-1,-1,13,-1,-1,15,17,19,-1,-1,-1,-1,-1,-1],"loss_changes":[1.4172601E4,1.4067511E4,0E0,1.4012173E4,1.8421152E3,1.3963879E4,2.1465148E4,0E0,0E0,1.3895026E4,0E0,0E0,5.3565664E3,1.3773334E4,4.4959443E3,0E0,0E0,0E0,0E0,0E0,0E0],"parents":[2147483647,0,0,1,1,3,3,4,4,5,5,6,6,9,9,12,12,13,13,14,14],"right_children":[2,4,-1,6,8,10,12,-1,-1,14,-1,-1,16,18,20,-1,-1,-1,-1,-1,-1],"split_conditions":[1.0203921E2,4.1647327E1,2.526092E1,3.225368E1,4.2842755E0,3.606418E1,6.595453E0,1.5442067E1,7.4403995E-1,2.7254095E1,-1.1827692E1,1.7327303E1,1.7968594E0,1.0203921E2,-2.4193151E-1,-2.1859938E1,2.720485E0,2.7048748E-3,2.4900888E1,-4.855787E0,-1.670673E1],"split_indices":[2519,2432,0,2270,6,231,2,0,0,441,0,0,15,2517,2720,0,0,0,0,0,0],"split_type":[0,0,0,0,0,0,0,0,0,0,0,0,0,0,0,0,0,0,0,0,0],"sum_hessian":[1.0413E4,1.0412E4,1E0,1.0406E4,6E0,1.0396E4,1E1,5E0,1E0,1.0388E4,8E0,8E0,2E0,1.0374E4,1.4E1,1E0,1E0,1.0373E4,1E0,1E1,4E0],"tree_param":{"num_deleted":"0","num_feature":"2721","num_nodes":"21","size_leaf_vector":"0"}},{"base_weights":[2.46789E-2,8.790947E-3,2.4819893E1,-7.1000597E-3,2.4819893E1,-2.2883374E-2,2.464695E1,-3.86694E-2,2.4646446E1,-5.4416344E-2,2.4580692E1,2.6164126E-2,-2.7210064E0],"categories":[],"categories_nodes":[],"categories_segments":[],"categories_sizes":[],"default_left":[0,0,0,0,0,0,0,0,0,0,0,0,0],"id":40,"left_children":[1,3,-1,5,-1,7,-1,9,-1,11,-1,-1,-1],"loss_changes":[1.3683951E4,1.3689209E4,0E0,1.3504307E4,0E0,1.3508941E4,0E0,1.3442153E4,0E0,1.3291844E4,0E0,0E0,0E0],"parents":[2147483647,0,0,1,1,3,3,5,5,7,7,9,9],"right_children":[2,4,-1,6,-1,8,-1,10,-1,12,-1,-1,-1],"split_conditions":[1.0203921E2,1.0203921E2,2.4819893E1,1.0203921E2,2.4819893E1,1.0203921E2,2.464695E1,3.9557716E1,2.4646446E1,8.005076E0,2.4580692E1,2.6164126E-2,-2.7210064E0],"split_indices":[1100,1684,0,1677,0,1446,0,26,0,368,0,0,0],"split_type":[0,0,0,0,0,0,0,0,0,0,0,0,0],"sum_hessian":[1.0413E4,1.0412E4,1E0,1.0411E4,1E0,1.041E4,1E0,1.0409E4,1E0,1.0408E4,1E0,1.0248E4,1.6E2],"tree_param":{"num_deleted":"0","num_feature":"2721","num_nodes":"13","size_leaf_vector":"0"}},{"base_weights":[2.8876463E-2,1.3277562E-2,2.4369036E1,-2.3289671E-2,3.45947E1,-1.5543856E-1,9.5269575E0,5.3000727E0,2.0606472E1,-1.588214E0,8.055236E-1,6.602867E0,1.0772439E1,-1.0513516E1,1.9788643E1,-1.644006E0,3.423285E1,7.074415E-1,2.600412E1,2.5659978E0,1.2524892E0,1.0857979E1,3.7125322E-1,-1.1666535E0,-4.55813E0,6.894836E0,1.5309329E0,-5.406523E-1,7.980611E0,1.8840063E-1,2.4532995E1,3.8192017E0,3.0092773E0],"categories":[],"categories_nodes":[],"categories_segments":[],"categories_sizes":[],"default_left":[0,0,0,0,0,0,0,0,0,0,0,0,0,0,0,0,0,0,0,0,0,0,0,0,0,0,0,0,0,0,0,0,0],"id":41,"left_children":[1,3,-1,5,7,9,11,13,-1,15,17,19,21,23,25,27,-1,29,-1,-1,-1,31,-1,-1,-1,-1,-1,-1,-1,-1,-1,-1,-1],"loss_changes":[1.3189816E4,1.3168533E4,0E0,1.3130634E4,1.0622279E4,1.4130441E4,4.4601953E2,1.8118624E3,0E0,2.6782215E4,5.1679844E4,1.7738892E2,6.649414E1,6.4934265E1,7.034717E1,1.8450088E4,0E0,3.94715E4,0E0,0E0,0E0,2.2536133E1,0E0,0E0,0E0,0E0,0E0,0E0,0E0,0E0,0E0,0E0,0E0],"parents":[2147483647,0,0,1,1,3,3,4,4,5,5,6,6,7,7,9,9,10,10,11,11,12,12,13,13,14,14,15,15,17,17,21,21],"right_children":[2,4,-1,6,8,10,12,14,-1,16,18,20,22,24,26,28,-1,30,-1,-1,-1,32,-1,-1,-1,-1,-1,-1,-1,-1,-1,-1,-1],"split_conditions":[1.0203921E2,3.225368E1,2.4369036E1,8.535284E0,2.8812754E0,1.371475E-1,7.219941E0,1.1296717E0,2.0606472E1,5.8906704E1,2.2245384E1,2.66177E0,1.0203921E2,3.8556084E1,3.8556084E1,1.5713961E1,3.423285E1,3.4E1,2.600412E1,2.5659978E0,1.2524892E0,1.2617955E0,3.7125322E-1,-1.1666535E0,-4.55813E0,6.894836E0,1.5309329E0,-5.406523E-1,7.980611E0,1.8840063E-1,2.4532995E1,3.8192017E0,3.0092773E0],"split_indices":[2386,89,0,178,21,2720,257,21,0,1506,527,25,1968,1883,1883,5,0,277,0,0,0,27,0,0,0,0,0,0,0,0,0,0,0],"split_type":[0,0,0,0,0,0,0,0,0,0,0,0,0,0,0,0,0,0,0,0,0,0,0,0,0,0,0,0,0,0,0,0,0],"sum_hessian":[1.0413E4,1.0412E4,1E0,1.0402E4,1E1,1.0261E4,1.41E2,6E0,4E0,4.119E3,6.142E3,4.4E1,9.7E1,3E0,3E0,4.118E3,1E0,6.136E3,6E0,2.3E1,2.1E1,9.6E1,1E0,2E0,1E0,2E0,1E0,4.096E3,2.2E1,6.131E3,5E0,2.5E1,7.1E1],"tree_param":{"num_deleted":"0","num_feature":"2721","num_nodes":"33","size_leaf_vector":"0"}},{"base_weights":[3.4722272E-2,-4.0182624E-2,1.7295368E1,-5.364132E-3,-3.6111603E1,9.910284E0,2.6879679E1,-2.434142E-2,1.96575E1,-1.332108E1,-5.887238E-1,6.508873E0,8.352355E0,9.516958E0,1.9348196E1,1.3309789E-2,-3.2490204E1,-1.857364E0,1.0176854E1,6.5963407E0,2.9675515E0,-1.21941894E-1,1.0323628E1,-4.336422E1,4.3759737E0,3.6642745E0,2.2754183E0,-4.230445E-2,1.94548E1,1.2326622E1,1.0736121E0,-1.5493968E1,-5.4087205E0],"categories":[],"categories_nodes":[],"categories_segments":[],"categories_sizes":[],"default_left":[0,0,0,0,0,0,0,0,0,0,0,0,0,0,0,0,0,0,0,0,0,0,0,0,0,0,0,0,0,0,0,0,0],"id":42,"left_children":[1,3,5,7,9,11,13,15,-1,-1,-1,17,-1,-1,19,21,23,-1,25,-1,-1,27,29,31,-1,-1,-1,-1,-1,-1,-1,-1,-1],"loss_changes":[1.3465027E4,1.3024033E4,2.9187568E3,1.2886414E4,2.7445107E3,1.4655251E3,7.931055E1,1.2663057E4,0E0,0E0,0E0,1.1810151E3,0E0,0E0,3.2110596E1,1.4431421E4,6.775499E3,0E0,7.7008057E0,0E0,0E0,1.2667496E4,2.7659064E4,1.1672051E3,0E0,0E0,0E0,0E0,0E0,0E0,0E0,0E0,0E0],"parents":[2147483647,0,0,1,1,2,2,3,3,4,4,5,5,6,6,7,7,11,11,14,14,15,15,16,16,18,18,21,21,22,22,23,23],"right_children":[2,4,6,8,10,12,14,16,-1,-1,-1,18,-1,-1,20,22,24,-1,26,-1,-1,28,30,32,-1,-1,-1,-1,-1,-1,-1,-1,-1],"split_conditions":[1.53511915E1,3.4E1,1.7548772E0,7.2149155E1,5.1012253E1,1.4571923E0,4.2842755E0,3.0751202E1,1.96575E1,-1.332108E1,-5.887238E-1,9.300911E-2,8.352355E0,9.516958E0,1.3027084E1,6.976242E-1,1.5621445E0,-1.857364E0,4.2842755E0,6.5963407E0,2.9675515E0,7.2149155E1,1.6887505E0,1.2923E0,4.3759737E0,3.6642745E0,2.2754183E0,-4.230445E-2,1.94548E1,1.2326622E1,1.0736121E0,-1.5493968E1,-5.4087205E0],"split_indices":[331,251,27,158,1306,19,6,1587,0,0,0,27,0,0,2665,14,22,0,6,0,0,279,14,14,0,0,0,0,0,0,0,0,0],"split_type":[0,0,0,0,0,0,0,0,0,0,0,0,0,0,0,0,0,0,0,0,0,0,0,0,0,0,0,0,0,0,0,0,0],"sum_hessian":[1.0413E4,1.0369E4,4.4E1,1.036E4,9E0,2.6E1,1.8E1,1.0358E4,2E0,7E0,2E0,2.3E1,3E0,9E0,9E0,1.0347E4,1.1E1,5E0,1.8E1,6E0,3E0,1.0214E4,1.33E2,9E0,2E0,8E0,1E1,1.0212E4,2E0,2.3E1,1.1E2,6E0,3E0],"tree_param":{"num_deleted":"0","num_feature":"2721","num_nodes":"33","size_leaf_vector":"0"}},{"base_weights":[2.9447218E-2,-4.2423443E-3,3.5080494E1,9.421708E-2,-1.1819324E1,2.37454E1,2.056445E1,7.580867E-2,1.9012648E1,-7.9082894E0,-1.2225708E1,1.0033161E1,1.1513223E1,5.7477724E-2,1.8925362E1,-1.0264509E1,1.7120264E1,9.1075176E-1,3.2476375E0,-4.0309033E-3,1.865853E1,-7.8321233E0,-1.6991415E1,7.57509E0,2.6454568E0,-5.5473078E-2,1.8822013E0,2.5387225E0,1.3812245E1,-2.948036E0,-1.1849573E0,-1.5549527E0,-5.4430494E0],"categories":[],"categories_nodes":[],"categories_segments":[],"categories_sizes":[],"default_left":[0,0,0,0,0,0,0,0,0,0,0,0,0,0,0,0,0,0,0,0,0,0,0,0,0,0,0,0,0,0,0,0,0],"id":43,"left_children":[1,3,5,7,9,11,-1,13,-1,15,-1,17,-1,19,-1,21,23,-1,-1,25,27,29,31,-1,-1,-1,-1,-1,-1,-1,-1,-1,-1],"loss_changes":[1.2297566E4,1.2105313E4,2.1658896E3,1.2017046E4,9.409315E3,1.4206909E3,0E0,1.191376E4,0E0,4.716633E3,0E0,3.9935303E-1,0E0,1.180287E4,0E0,1.0286538E3,2.4981128E2,0E0,0E0,1.1678194E4,9.10295E3,3.7935156E2,1.5083154E2,0E0,0E0,0E0,0E0,0E0,0E0,0E0,0E0,0E0,0E0],"parents":[2147483647,0,0,1,1,2,2,3,3,4,4,5,5,7,7,9,9,11,11,13,13,15,15,16,16,19,19,20,20,21,21,22,22],"right_children":[2,4,6,8,10,12,-1,14,-1,16,-1,18,-1,20,-1,22,24,-1,-1,26,28,30,32,-1,-1,-1,-1,-1,-1,-1,-1,-1,-1],"split_conditions":[3.4E1,1.1022971E1,-2.5397435E-1,7.2149155E1,8.356838E0,-9.355174E-2,2.056445E1,7.2149155E1,1.9012648E1,3.5740466E0,-1.2225708E1,2.3591468E0,1.1513223E1,6.5498424E0,1.8925362E1,1.0910153E-1,1.0910153E-1,9.1075176E-1,3.2476375E0,2.4228475E0,2.5890498E0,1.7471827E1,2.250477E0,7.57509E0,2.6454568E0,-5.5473078E-2,1.8822013E0,2.5387225E0,1.3812245E1,-2.948036E0,-1.1849573E0,-1.5549527E0,-5.4430494E0],"split_indices":[143,207,27,176,2696,2719,0,141,0,2715,0,3,0,26,0,2719,2719,0,0,23,0,486,2716,0,0,0,0,0,0,0,0,0,0],"split_type":[0,0,0,0,0,0,0,0,0,0,0,0,0,0,0,0,0,0,0,0,0,0,0,0,0,0,0,0,0,0,0,0,0],"sum_hessian":[1.0413E4,1.0404E4,9E0,1.0319E4,8.5E1,8E0,1E0,1.0317E4,2E0,7.6E1,9E0,5E0,3E0,1.0315E4,2E0,7E1,6E0,1E0,4E0,1.0282E4,3.3E1,5.3E1,1.7E1,2E0,4E0,9.995E3,2.87E2,2.5E1,8E0,3.4E1,1.9E1,2E0,1.5E1],"tree_param":{"num_deleted":"0","num_feature":"2721","num_nodes":"33","size_leaf_vector":"0"}},{"base_weights":[2.8219543E-2,-2.9105822E-2,1.9229458E1,-9.933134E-2,1.5755476E1,9.20038E0,3.6627747E1,-5.8878905E-1,2.1966221E0,2.6152349E0,1.8839647E1,6.4591926E-1,7.865109E0,1.40656395E1,5.3085228E1,-6.333566E-1,3.1073479E1,1.918734E0,8.517789E0,1.5586188E1,5.7068926E-1,-3.566145E0,9.783277E0,8.00689E0,1.0812335E0,2.117983E1,2.6678267E1,-7.1614915E-1,1.6489864E1,1.4575033E1,2.2713142E1,1.6323638E0,2.730974E1,2.4342337E0,1.0229101E1,-4.720251E0,1.9212779E0,-1.2114457E0,-2.884224E-1,1.1475533E1,4.5213786E-1,9.2626137E-1,-1.8501416E-1,9.389205E0,1.9231535E0,-2.2917373E-1,8.458281E0,2.4762604E-1,6.661794E0,2.862559E-1,2.05744E1,4.419249E-1,1.2529652E1,-4.1410846E-1,1.6841364E1,-4.3706992E-1,1.2650734E0,-1.8981072E0,-5.8002496E-1,7.403115E-1,-9.8181194E-1,4.288788E0,4.5213786E-1],"categories":[],"categories_nodes":[],"categories_segments":[],"categories_sizes":[],"default_left":[0,0,0,0,0,0,0,0,0,0,0,0,0,0,0,0,0,0,0,0,0,0,0,0,0,0,0,0,0,0,0,0,0,0,0,0,0,0,0,0,0,0,0,0,0,0,0,0,0,0,0,0,0,0,0,0,0,0,0,0,0,0,0],"id":44,"left_children":[1,3,5,7,9,11,13,15,17,19,-1,21,-1,23,25,27,29,31,-1,33,35,37,39,-1,41,-1,43,45,47,49,-1,51,53,55,-1,57,59,-1,-1,61,-1,-1,-1,-1,-1,-1,-1,-1,-1,-1,-1,-1,-1,-1,-1,-1,-1,-1,-1,-1,-1,-1,-1],"loss_changes":[1.14634375E4,1.1512026E4,5.072162E3,1.1619975E4,2.8271168E4,3.0399995E3,3.337792E3,1.2046551E4,1.317248E4,9.723343E2,0E0,6.121956E2,0E0,9.546328E2,8.9150977E2,1.2079064E4,7.7338096E3,1.3036356E4,0E0,1.134267E3,2.4488309E2,9.641693E0,5.273175E1,0E0,1.5530523E1,0E0,1.7384155E2,1.1720156E4,3.6528018E3,7.2906763E3,0E0,1.1317025E4,1.6619133E4,3.3890167E1,0E0,1.9111877E1,8.4705666E1,0E0,0E0,9.0914856E1,0E0,0E0,0E0,0E0,0E0,0E0,0E0,0E0,0E0,0E0,0E0,0E0,0E0,0E0,0E0,0E0,0E0,0E0,0E0,0E0,0E0,0E0,0E0],"parents":[2147483647,0,0,1,1,2,2,3,3,4,4,5,5,6,6,7,7,8,8,9,9,11,11,13,13,14,14,15,15,16,16,17,17,19,19,20,20,21,21,22,22,24,24,26,26,27,27,28,28,29,29,31,31,32,32,33,33,35,35,36,36,39,39],"right_children":[2,4,6,8,10,12,14,16,18,20,-1,22,-1,24,26,28,30,32,-1,34,36,38,40,-1,42,-1,44,46,48,50,-1,52,54,56,-1,58,60,-1,-1,62,-1,-1,-1,-1,-1,-1,-1,-1,-1,-1,-1,-1,-1,-1,-1,-1,-1,-1,-1,-1,-1,-1,-1],"split_conditions":[1.8603764E1,1.5178933E1,9.340544E0,3.1571108E-1,2.6972795E-1,7.604637E0,7.7748955E-3,2.549142E1,1.7219591E1,-2.96205E-1,1.8839647E1,2.9440619E1,7.865109E0,-3.0750567E-1,3.117548E-1,1.4767083E1,-1.2054064E-1,1.1156067E1,8.517789E0,-7.0151156E-1,-1.3398196E-1,2.8562758E0,1.0203921E2,8.00689E0,-3.9753166E-1,2.117983E1,3.8556084E1,1.4892273E1,2.7773743E0,3.9092126E0,2.2713142E1,1.1224429E1,-3.6829117E-1,7.3665917E-1,1.0229101E1,-1.9918747E-1,8.271638E0,-1.2114457E0,-2.884224E-1,5.1012253E1,4.5213786E-1,9.2626137E-1,-1.8501416E-1,9.389205E0,1.9231535E0,-2.2917373E-1,8.458281E0,2.4762604E-1,6.661794E0,2.862559E-1,2.05744E1,4.419249E-1,1.2529652E1,-4.1410846E-1,1.6841364E1,-4.3706992E-1,1.2650734E0,-1.8981072E0,-5.8002496E-1,7.403115E-1,-9.8181194E-1,4.288788E0,4.5213786E-1],"split_indices":[426,1894,68,22,23,105,2719,463,294,2719,0,49,0,22,2719,20,22,252,0,2719,23,10,1070,0,2719,0,1631,21,35,26,0,420,2720,1,0,27,317,0,0,2152,0,0,0,0,0,0,0,0,0,0,0,0,0,0,0,0,0,0,0,0,0,0,0],"split_type":[0,0,0,0,0,0,0,0,0,0,0,0,0,0,0,0,0,0,0,0,0,0,0,0,0,0,0,0,0,0,0,0,0,0,0,0,0,0,0,0,0,0,0,0,0,0,0,0,0,0,0,0,0,0,0,0,0,0,0,0,0,0,0],"sum_hessian":[1.0413E4,1.0383E4,3E1,1.0338E4,4.5E1,2E1,1E1,8.522E3,1.816E3,3.6E1,9E0,1.4E1,6E0,5E0,5E0,8.511E3,1.1E1,1.798E3,1.8E1,4E0,3.2E1,1E1,4E0,2E0,3E0,2E0,3E0,8.471E3,4E1,9E0,2E0,1.779E3,1.9E1,3E0,1E0,6E0,2.6E1,8E0,2E0,3E0,1E0,1E0,2E0,2E0,1E0,8.458E3,1.3E1,1.1E1,2.9E1,8E0,1E0,1.773E3,6E0,1E1,9E0,1E0,2E0,3E0,3E0,2.4E1,2E0,2E0,1E0],"tree_param":{"num_deleted":"0","num_feature":"2721","num_nodes":"63","size_leaf_vector":"0"}},{"base_weights":[3.6712136E-2,2.219907E-2,2.2674189E1,3.6673635E-2,-2.2603048E1,1.905727E-2,1.8345972E1,-1.2282522E-3,5.279215E1,-1.5503168E-2,